digraph Tree {
node [shape=box] ;
0 [label="recipe <= 0.5\ngini = 0.4996\nsamples = 7395\nvalue = [3599, 3796]"] ;
1 [label="image_ratio <= 0.3788\ngini = 0.4962\nsamples = 6469\nvalue = [3517, 2952]"] ;
0 -> 1 [labeldistance=2.5, labelangle=45, headlabel="True"] ;
2 [label="html_ratio <= 0.307\ngini = 0.4995\nsamples = 5427\nvalue = [2799, 2628]"] ;
1 -> 2 ;
3 [label="html_ratio <= 0.1588\ngini = 0.4999\nsamples = 4995\nvalue = [2535, 2460]"] ;
2 -> 3 ;
4 [label="html_ratio <= 0.0827\ngini = 0.4461\nsamples = 134\nvalue = [89, 45]"] ;
3 -> 4 ;
5 [label="gini = 0.0\nsamples = 2\nvalue = [0, 2]"] ;
4 -> 5 ;
6 [label="image_ratio <= 0.2565\ngini = 0.4393\nsamples = 132\nvalue = [89, 43]"] ;
4 -> 6 ;
7 [label="image_ratio <= 0.0651\ngini = 0.4148\nsamples = 109\nvalue = [77, 32]"] ;
6 -> 7 ;
8 [label="html_ratio <= 0.1357\ngini = 0.4728\nsamples = 60\nvalue = [37, 23]"] ;
7 -> 8 ;
9 [label="html_ratio <= 0.0999\ngini = 0.4965\nsamples = 24\nvalue = [11, 13]"] ;
8 -> 9 ;
10 [label="gini = 0.0\nsamples = 4\nvalue = [4, 0]"] ;
9 -> 10 ;
11 [label="html_ratio <= 0.1276\ngini = 0.455\nsamples = 20\nvalue = [7, 13]"] ;
9 -> 11 ;
12 [label="html_ratio <= 0.1264\ngini = 0.4978\nsamples = 15\nvalue = [7, 8]"] ;
11 -> 12 ;
13 [label="html_ratio <= 0.1165\ngini = 0.4444\nsamples = 12\nvalue = [4, 8]"] ;
12 -> 13 ;
14 [label="html_ratio <= 0.1027\ngini = 0.4938\nsamples = 9\nvalue = [4, 5]"] ;
13 -> 14 ;
15 [label="gini = 0.0\nsamples = 2\nvalue = [0, 2]"] ;
14 -> 15 ;
16 [label="image_ratio <= -0.4978\ngini = 0.4898\nsamples = 7\nvalue = [4, 3]"] ;
14 -> 16 ;
17 [label="html_ratio <= 0.1155\ngini = 0.375\nsamples = 4\nvalue = [3, 1]"] ;
16 -> 17 ;
18 [label="gini = 0.0\nsamples = 3\nvalue = [3, 0]"] ;
17 -> 18 ;
19 [label="gini = 0.0\nsamples = 1\nvalue = [0, 1]"] ;
17 -> 19 ;
20 [label="image_ratio <= 0.0287\ngini = 0.4444\nsamples = 3\nvalue = [1, 2]"] ;
16 -> 20 ;
21 [label="gini = 0.0\nsamples = 2\nvalue = [0, 2]"] ;
20 -> 21 ;
22 [label="gini = 0.0\nsamples = 1\nvalue = [1, 0]"] ;
20 -> 22 ;
23 [label="gini = 0.0\nsamples = 3\nvalue = [0, 3]"] ;
13 -> 23 ;
24 [label="gini = 0.0\nsamples = 3\nvalue = [3, 0]"] ;
12 -> 24 ;
25 [label="gini = 0.0\nsamples = 5\nvalue = [0, 5]"] ;
11 -> 25 ;
26 [label="image_ratio <= 0.002\ngini = 0.4012\nsamples = 36\nvalue = [26, 10]"] ;
8 -> 26 ;
27 [label="html_ratio <= 0.1527\ngini = 0.2688\nsamples = 25\nvalue = [21, 4]"] ;
26 -> 27 ;
28 [label="html_ratio <= 0.1523\ngini = 0.3324\nsamples = 19\nvalue = [15, 4]"] ;
27 -> 28 ;
29 [label="html_ratio <= 0.1495\ngini = 0.2778\nsamples = 18\nvalue = [15, 3]"] ;
28 -> 29 ;
30 [label="html_ratio <= 0.1476\ngini = 0.355\nsamples = 13\nvalue = [10, 3]"] ;
29 -> 30 ;
31 [label="html_ratio <= 0.1449\ngini = 0.2778\nsamples = 12\nvalue = [10, 2]"] ;
30 -> 31 ;
32 [label="html_ratio <= 0.1445\ngini = 0.375\nsamples = 8\nvalue = [6, 2]"] ;
31 -> 32 ;
33 [label="html_ratio <= 0.1418\ngini = 0.2449\nsamples = 7\nvalue = [6, 1]"] ;
32 -> 33 ;
34 [label="gini = 0.0\nsamples = 3\nvalue = [3, 0]"] ;
33 -> 34 ;
35 [label="html_ratio <= 0.1425\ngini = 0.375\nsamples = 4\nvalue = [3, 1]"] ;
33 -> 35 ;
36 [label="gini = 0.0\nsamples = 1\nvalue = [0, 1]"] ;
35 -> 36 ;
37 [label="gini = 0.0\nsamples = 3\nvalue = [3, 0]"] ;
35 -> 37 ;
38 [label="gini = 0.0\nsamples = 1\nvalue = [0, 1]"] ;
32 -> 38 ;
39 [label="gini = 0.0\nsamples = 4\nvalue = [4, 0]"] ;
31 -> 39 ;
40 [label="gini = 0.0\nsamples = 1\nvalue = [0, 1]"] ;
30 -> 40 ;
41 [label="gini = 0.0\nsamples = 5\nvalue = [5, 0]"] ;
29 -> 41 ;
42 [label="gini = 0.0\nsamples = 1\nvalue = [0, 1]"] ;
28 -> 42 ;
43 [label="gini = 0.0\nsamples = 6\nvalue = [6, 0]"] ;
27 -> 43 ;
44 [label="html_ratio <= 0.1389\ngini = 0.4959\nsamples = 11\nvalue = [5, 6]"] ;
26 -> 44 ;
45 [label="gini = 0.0\nsamples = 2\nvalue = [2, 0]"] ;
44 -> 45 ;
46 [label="html_ratio <= 0.1519\ngini = 0.4444\nsamples = 9\nvalue = [3, 6]"] ;
44 -> 46 ;
47 [label="gini = 0.0\nsamples = 2\nvalue = [0, 2]"] ;
46 -> 47 ;
48 [label="html_ratio <= 0.1549\ngini = 0.4898\nsamples = 7\nvalue = [3, 4]"] ;
46 -> 48 ;
49 [label="gini = 0.0\nsamples = 2\nvalue = [2, 0]"] ;
48 -> 49 ;
50 [label="image_ratio <= 0.0226\ngini = 0.32\nsamples = 5\nvalue = [1, 4]"] ;
48 -> 50 ;
51 [label="image_ratio <= 0.0101\ngini = 0.5\nsamples = 2\nvalue = [1, 1]"] ;
50 -> 51 ;
52 [label="gini = 0.0\nsamples = 1\nvalue = [0, 1]"] ;
51 -> 52 ;
53 [label="gini = 0.0\nsamples = 1\nvalue = [1, 0]"] ;
51 -> 53 ;
54 [label="gini = 0.0\nsamples = 3\nvalue = [0, 3]"] ;
50 -> 54 ;
55 [label="html_ratio <= 0.1532\ngini = 0.2999\nsamples = 49\nvalue = [40, 9]"] ;
7 -> 55 ;
56 [label="html_ratio <= 0.1158\ngini = 0.355\nsamples = 39\nvalue = [30, 9]"] ;
55 -> 56 ;
57 [label="gini = 0.0\nsamples = 9\nvalue = [9, 0]"] ;
56 -> 57 ;
58 [label="image_ratio <= 0.164\ngini = 0.42\nsamples = 30\nvalue = [21, 9]"] ;
56 -> 58 ;
59 [label="image_ratio <= 0.1565\ngini = 0.497\nsamples = 13\nvalue = [7, 6]"] ;
58 -> 59 ;
60 [label="html_ratio <= 0.1245\ngini = 0.4628\nsamples = 11\nvalue = [7, 4]"] ;
59 -> 60 ;
61 [label="gini = 0.0\nsamples = 2\nvalue = [0, 2]"] ;
60 -> 61 ;
62 [label="html_ratio <= 0.1495\ngini = 0.3457\nsamples = 9\nvalue = [7, 2]"] ;
60 -> 62 ;
63 [label="image_ratio <= 0.1439\ngini = 0.2188\nsamples = 8\nvalue = [7, 1]"] ;
62 -> 63 ;
64 [label="gini = 0.0\nsamples = 6\nvalue = [6, 0]"] ;
63 -> 64 ;
65 [label="image_ratio <= 0.1496\ngini = 0.5\nsamples = 2\nvalue = [1, 1]"] ;
63 -> 65 ;
66 [label="gini = 0.0\nsamples = 1\nvalue = [0, 1]"] ;
65 -> 66 ;
67 [label="gini = 0.0\nsamples = 1\nvalue = [1, 0]"] ;
65 -> 67 ;
68 [label="gini = 0.0\nsamples = 1\nvalue = [0, 1]"] ;
62 -> 68 ;
69 [label="gini = 0.0\nsamples = 2\nvalue = [0, 2]"] ;
59 -> 69 ;
70 [label="html_ratio <= 0.1323\ngini = 0.2907\nsamples = 17\nvalue = [14, 3]"] ;
58 -> 70 ;
71 [label="gini = 0.0\nsamples = 7\nvalue = [7, 0]"] ;
70 -> 71 ;
72 [label="html_ratio <= 0.1359\ngini = 0.42\nsamples = 10\nvalue = [7, 3]"] ;
70 -> 72 ;
73 [label="gini = 0.0\nsamples = 1\nvalue = [0, 1]"] ;
72 -> 73 ;
74 [label="image_ratio <= 0.2133\ngini = 0.3457\nsamples = 9\nvalue = [7, 2]"] ;
72 -> 74 ;
75 [label="image_ratio <= 0.2081\ngini = 0.4444\nsamples = 6\nvalue = [4, 2]"] ;
74 -> 75 ;
76 [label="html_ratio <= 0.1422\ngini = 0.32\nsamples = 5\nvalue = [4, 1]"] ;
75 -> 76 ;
77 [label="html_ratio <= 0.1391\ngini = 0.5\nsamples = 2\nvalue = [1, 1]"] ;
76 -> 77 ;
78 [label="gini = 0.0\nsamples = 1\nvalue = [1, 0]"] ;
77 -> 78 ;
79 [label="gini = 0.0\nsamples = 1\nvalue = [0, 1]"] ;
77 -> 79 ;
80 [label="gini = 0.0\nsamples = 3\nvalue = [3, 0]"] ;
76 -> 80 ;
81 [label="gini = 0.0\nsamples = 1\nvalue = [0, 1]"] ;
75 -> 81 ;
82 [label="gini = 0.0\nsamples = 3\nvalue = [3, 0]"] ;
74 -> 82 ;
83 [label="gini = 0.0\nsamples = 10\nvalue = [10, 0]"] ;
55 -> 83 ;
84 [label="image_ratio <= 0.2952\ngini = 0.4991\nsamples = 23\nvalue = [12, 11]"] ;
6 -> 84 ;
85 [label="html_ratio <= 0.1576\ngini = 0.375\nsamples = 8\nvalue = [2, 6]"] ;
84 -> 85 ;
86 [label="gini = 0.0\nsamples = 6\nvalue = [0, 6]"] ;
85 -> 86 ;
87 [label="gini = 0.0\nsamples = 2\nvalue = [2, 0]"] ;
85 -> 87 ;
88 [label="html_ratio <= 0.1561\ngini = 0.4444\nsamples = 15\nvalue = [10, 5]"] ;
84 -> 88 ;
89 [label="image_ratio <= 0.3692\ngini = 0.355\nsamples = 13\nvalue = [10, 3]"] ;
88 -> 89 ;
90 [label="image_ratio <= 0.2959\ngini = 0.2778\nsamples = 12\nvalue = [10, 2]"] ;
89 -> 90 ;
91 [label="html_ratio <= 0.1491\ngini = 0.5\nsamples = 2\nvalue = [1, 1]"] ;
90 -> 91 ;
92 [label="gini = 0.0\nsamples = 1\nvalue = [0, 1]"] ;
91 -> 92 ;
93 [label="gini = 0.0\nsamples = 1\nvalue = [1, 0]"] ;
91 -> 93 ;
94 [label="html_ratio <= 0.1451\ngini = 0.18\nsamples = 10\nvalue = [9, 1]"] ;
90 -> 94 ;
95 [label="html_ratio <= 0.1397\ngini = 0.32\nsamples = 5\nvalue = [4, 1]"] ;
94 -> 95 ;
96 [label="gini = 0.0\nsamples = 4\nvalue = [4, 0]"] ;
95 -> 96 ;
97 [label="gini = 0.0\nsamples = 1\nvalue = [0, 1]"] ;
95 -> 97 ;
98 [label="gini = 0.0\nsamples = 5\nvalue = [5, 0]"] ;
94 -> 98 ;
99 [label="gini = 0.0\nsamples = 1\nvalue = [0, 1]"] ;
89 -> 99 ;
100 [label="gini = 0.0\nsamples = 2\nvalue = [0, 2]"] ;
88 -> 100 ;
101 [label="html_ratio <= 0.2015\ngini = 0.5\nsamples = 4861\nvalue = [2446, 2415]"] ;
3 -> 101 ;
102 [label="image_ratio <= 0.0169\ngini = 0.4895\nsamples = 882\nvalue = [377, 505]"] ;
101 -> 102 ;
103 [label="image_ratio <= 0.0149\ngini = 0.497\nsamples = 141\nvalue = [76, 65]"] ;
102 -> 103 ;
104 [label="image_ratio <= 0.0121\ngini = 0.4995\nsamples = 132\nvalue = [68, 64]"] ;
103 -> 104 ;
105 [label="image_ratio <= 0.0113\ngini = 0.4975\nsamples = 127\nvalue = [68, 59]"] ;
104 -> 105 ;
106 [label="image_ratio <= 0.0017\ngini = 0.4988\nsamples = 124\nvalue = [65, 59]"] ;
105 -> 106 ;
107 [label="image_ratio <= -0.5\ngini = 0.494\nsamples = 110\nvalue = [61, 49]"] ;
106 -> 107 ;
108 [label="html_ratio <= 0.1998\ngini = 0.4972\nsamples = 106\nvalue = [57, 49]"] ;
107 -> 108 ;
109 [label="html_ratio <= 0.1994\ngini = 0.4988\nsamples = 101\nvalue = [53, 48]"] ;
108 -> 109 ;
110 [label="html_ratio <= 0.1613\ngini = 0.4967\nsamples = 98\nvalue = [53, 45]"] ;
109 -> 110 ;
111 [label="gini = 0.0\nsamples = 1\nvalue = [0, 1]"] ;
110 -> 111 ;
112 [label="html_ratio <= 0.1622\ngini = 0.4957\nsamples = 97\nvalue = [53, 44]"] ;
110 -> 112 ;
113 [label="gini = 0.0\nsamples = 3\nvalue = [3, 0]"] ;
112 -> 113 ;
114 [label="html_ratio <= 0.165\ngini = 0.498\nsamples = 94\nvalue = [50, 44]"] ;
112 -> 114 ;
115 [label="html_ratio <= 0.1635\ngini = 0.42\nsamples = 10\nvalue = [3, 7]"] ;
114 -> 115 ;
116 [label="html_ratio <= 0.1627\ngini = 0.5\nsamples = 4\nvalue = [2, 2]"] ;
115 -> 116 ;
117 [label="gini = 0.0\nsamples = 1\nvalue = [0, 1]"] ;
116 -> 117 ;
118 [label="html_ratio <= 0.1632\ngini = 0.4444\nsamples = 3\nvalue = [2, 1]"] ;
116 -> 118 ;
119 [label="gini = 0.0\nsamples = 1\nvalue = [1, 0]"] ;
118 -> 119 ;
120 [label="html_ratio <= 0.1633\ngini = 0.5\nsamples = 2\nvalue = [1, 1]"] ;
118 -> 120 ;
121 [label="gini = 0.0\nsamples = 1\nvalue = [0, 1]"] ;
120 -> 121 ;
122 [label="gini = 0.0\nsamples = 1\nvalue = [1, 0]"] ;
120 -> 122 ;
123 [label="html_ratio <= 0.1638\ngini = 0.2778\nsamples = 6\nvalue = [1, 5]"] ;
115 -> 123 ;
124 [label="gini = 0.0\nsamples = 3\nvalue = [0, 3]"] ;
123 -> 124 ;
125 [label="html_ratio <= 0.1641\ngini = 0.4444\nsamples = 3\nvalue = [1, 2]"] ;
123 -> 125 ;
126 [label="gini = 0.0\nsamples = 1\nvalue = [1, 0]"] ;
125 -> 126 ;
127 [label="gini = 0.0\nsamples = 2\nvalue = [0, 2]"] ;
125 -> 127 ;
128 [label="html_ratio <= 0.1659\ngini = 0.4929\nsamples = 84\nvalue = [47, 37]"] ;
114 -> 128 ;
129 [label="gini = 0.0\nsamples = 3\nvalue = [3, 0]"] ;
128 -> 129 ;
130 [label="html_ratio <= 0.1666\ngini = 0.4963\nsamples = 81\nvalue = [44, 37]"] ;
128 -> 130 ;
131 [label="gini = 0.0\nsamples = 2\nvalue = [0, 2]"] ;
130 -> 131 ;
132 [label="html_ratio <= 0.1678\ngini = 0.4935\nsamples = 79\nvalue = [44, 35]"] ;
130 -> 132 ;
133 [label="gini = 0.0\nsamples = 3\nvalue = [3, 0]"] ;
132 -> 133 ;
134 [label="html_ratio <= 0.1744\ngini = 0.4969\nsamples = 76\nvalue = [41, 35]"] ;
132 -> 134 ;
135 [label="html_ratio <= 0.1707\ngini = 0.48\nsamples = 15\nvalue = [6, 9]"] ;
134 -> 135 ;
136 [label="html_ratio <= 0.1696\ngini = 0.4898\nsamples = 7\nvalue = [4, 3]"] ;
135 -> 136 ;
137 [label="html_ratio <= 0.1691\ngini = 0.48\nsamples = 5\nvalue = [2, 3]"] ;
136 -> 137 ;
138 [label="html_ratio <= 0.1683\ngini = 0.4444\nsamples = 3\nvalue = [2, 1]"] ;
137 -> 138 ;
139 [label="gini = 0.0\nsamples = 1\nvalue = [0, 1]"] ;
138 -> 139 ;
140 [label="gini = 0.0\nsamples = 2\nvalue = [2, 0]"] ;
138 -> 140 ;
141 [label="gini = 0.0\nsamples = 2\nvalue = [0, 2]"] ;
137 -> 141 ;
142 [label="gini = 0.0\nsamples = 2\nvalue = [2, 0]"] ;
136 -> 142 ;
143 [label="html_ratio <= 0.1716\ngini = 0.375\nsamples = 8\nvalue = [2, 6]"] ;
135 -> 143 ;
144 [label="gini = 0.0\nsamples = 2\nvalue = [0, 2]"] ;
143 -> 144 ;
145 [label="html_ratio <= 0.1722\ngini = 0.4444\nsamples = 6\nvalue = [2, 4]"] ;
143 -> 145 ;
146 [label="gini = 0.0\nsamples = 1\nvalue = [1, 0]"] ;
145 -> 146 ;
147 [label="html_ratio <= 0.1732\ngini = 0.32\nsamples = 5\nvalue = [1, 4]"] ;
145 -> 147 ;
148 [label="gini = 0.0\nsamples = 2\nvalue = [0, 2]"] ;
147 -> 148 ;
149 [label="html_ratio <= 0.1737\ngini = 0.4444\nsamples = 3\nvalue = [1, 2]"] ;
147 -> 149 ;
150 [label="gini = 0.0\nsamples = 1\nvalue = [1, 0]"] ;
149 -> 150 ;
151 [label="gini = 0.0\nsamples = 2\nvalue = [0, 2]"] ;
149 -> 151 ;
152 [label="html_ratio <= 0.1819\ngini = 0.4891\nsamples = 61\nvalue = [35, 26]"] ;
134 -> 152 ;
153 [label="html_ratio <= 0.1796\ngini = 0.3367\nsamples = 14\nvalue = [11, 3]"] ;
152 -> 153 ;
154 [label="html_ratio <= 0.1794\ngini = 0.42\nsamples = 10\nvalue = [7, 3]"] ;
153 -> 154 ;
155 [label="html_ratio <= 0.1753\ngini = 0.3457\nsamples = 9\nvalue = [7, 2]"] ;
154 -> 155 ;
156 [label="html_ratio <= 0.1749\ngini = 0.5\nsamples = 2\nvalue = [1, 1]"] ;
155 -> 156 ;
157 [label="gini = 0.0\nsamples = 1\nvalue = [1, 0]"] ;
156 -> 157 ;
158 [label="gini = 0.0\nsamples = 1\nvalue = [0, 1]"] ;
156 -> 158 ;
159 [label="html_ratio <= 0.1781\ngini = 0.2449\nsamples = 7\nvalue = [6, 1]"] ;
155 -> 159 ;
160 [label="gini = 0.0\nsamples = 4\nvalue = [4, 0]"] ;
159 -> 160 ;
161 [label="html_ratio <= 0.1786\ngini = 0.4444\nsamples = 3\nvalue = [2, 1]"] ;
159 -> 161 ;
162 [label="gini = 0.0\nsamples = 1\nvalue = [0, 1]"] ;
161 -> 162 ;
163 [label="gini = 0.0\nsamples = 2\nvalue = [2, 0]"] ;
161 -> 163 ;
164 [label="gini = 0.0\nsamples = 1\nvalue = [0, 1]"] ;
154 -> 164 ;
165 [label="gini = 0.0\nsamples = 4\nvalue = [4, 0]"] ;
153 -> 165 ;
166 [label="html_ratio <= 0.1835\ngini = 0.4998\nsamples = 47\nvalue = [24, 23]"] ;
152 -> 166 ;
167 [label="gini = 0.0\nsamples = 3\nvalue = [0, 3]"] ;
166 -> 167 ;
168 [label="html_ratio <= 0.1887\ngini = 0.4959\nsamples = 44\nvalue = [24, 20]"] ;
166 -> 168 ;
169 [label="html_ratio <= 0.188\ngini = 0.426\nsamples = 13\nvalue = [9, 4]"] ;
168 -> 169 ;
170 [label="html_ratio <= 0.1876\ngini = 0.4628\nsamples = 11\nvalue = [7, 4]"] ;
169 -> 170 ;
171 [label="html_ratio <= 0.1869\ngini = 0.42\nsamples = 10\nvalue = [7, 3]"] ;
170 -> 171 ;
172 [label="html_ratio <= 0.1861\ngini = 0.4898\nsamples = 7\nvalue = [4, 3]"] ;
171 -> 172 ;
173 [label="html_ratio <= 0.1843\ngini = 0.32\nsamples = 5\nvalue = [4, 1]"] ;
172 -> 173 ;
174 [label="html_ratio <= 0.1839\ngini = 0.5\nsamples = 2\nvalue = [1, 1]"] ;
173 -> 174 ;
175 [label="gini = 0.0\nsamples = 1\nvalue = [1, 0]"] ;
174 -> 175 ;
176 [label="gini = 0.0\nsamples = 1\nvalue = [0, 1]"] ;
174 -> 176 ;
177 [label="gini = 0.0\nsamples = 3\nvalue = [3, 0]"] ;
173 -> 177 ;
178 [label="gini = 0.0\nsamples = 2\nvalue = [0, 2]"] ;
172 -> 178 ;
179 [label="gini = 0.0\nsamples = 3\nvalue = [3, 0]"] ;
171 -> 179 ;
180 [label="gini = 0.0\nsamples = 1\nvalue = [0, 1]"] ;
170 -> 180 ;
181 [label="gini = 0.0\nsamples = 2\nvalue = [2, 0]"] ;
169 -> 181 ;
182 [label="html_ratio <= 0.1899\ngini = 0.4995\nsamples = 31\nvalue = [15, 16]"] ;
168 -> 182 ;
183 [label="gini = 0.0\nsamples = 4\nvalue = [0, 4]"] ;
182 -> 183 ;
184 [label="html_ratio <= 0.1912\ngini = 0.4938\nsamples = 27\nvalue = [15, 12]"] ;
182 -> 184 ;
185 [label="html_ratio <= 0.1904\ngini = 0.32\nsamples = 5\nvalue = [4, 1]"] ;
184 -> 185 ;
186 [label="html_ratio <= 0.1902\ngini = 0.5\nsamples = 2\nvalue = [1, 1]"] ;
185 -> 186 ;
187 [label="gini = 0.0\nsamples = 1\nvalue = [1, 0]"] ;
186 -> 187 ;
188 [label="gini = 0.0\nsamples = 1\nvalue = [0, 1]"] ;
186 -> 188 ;
189 [label="gini = 0.0\nsamples = 3\nvalue = [3, 0]"] ;
185 -> 189 ;
190 [label="html_ratio <= 0.1943\ngini = 0.5\nsamples = 22\nvalue = [11, 11]"] ;
184 -> 190 ;
191 [label="html_ratio <= 0.1938\ngini = 0.375\nsamples = 8\nvalue = [2, 6]"] ;
190 -> 191 ;
192 [label="html_ratio <= 0.1923\ngini = 0.48\nsamples = 5\nvalue = [2, 3]"] ;
191 -> 192 ;
193 [label="gini = 0.0\nsamples = 2\nvalue = [0, 2]"] ;
192 -> 193 ;
194 [label="html_ratio <= 0.1928\ngini = 0.4444\nsamples = 3\nvalue = [2, 1]"] ;
192 -> 194 ;
195 [label="gini = 0.0\nsamples = 1\nvalue = [1, 0]"] ;
194 -> 195 ;
196 [label="html_ratio <= 0.1933\ngini = 0.5\nsamples = 2\nvalue = [1, 1]"] ;
194 -> 196 ;
197 [label="gini = 0.0\nsamples = 1\nvalue = [0, 1]"] ;
196 -> 197 ;
198 [label="gini = 0.0\nsamples = 1\nvalue = [1, 0]"] ;
196 -> 198 ;
199 [label="gini = 0.0\nsamples = 3\nvalue = [0, 3]"] ;
191 -> 199 ;
200 [label="html_ratio <= 0.1982\ngini = 0.4592\nsamples = 14\nvalue = [9, 5]"] ;
190 -> 200 ;
201 [label="html_ratio <= 0.196\ngini = 0.2449\nsamples = 7\nvalue = [6, 1]"] ;
200 -> 201 ;
202 [label="gini = 0.0\nsamples = 3\nvalue = [3, 0]"] ;
201 -> 202 ;
203 [label="html_ratio <= 0.1967\ngini = 0.375\nsamples = 4\nvalue = [3, 1]"] ;
201 -> 203 ;
204 [label="gini = 0.0\nsamples = 1\nvalue = [0, 1]"] ;
203 -> 204 ;
205 [label="gini = 0.0\nsamples = 3\nvalue = [3, 0]"] ;
203 -> 205 ;
206 [label="html_ratio <= 0.1985\ngini = 0.4898\nsamples = 7\nvalue = [3, 4]"] ;
200 -> 206 ;
207 [label="gini = 0.0\nsamples = 2\nvalue = [0, 2]"] ;
206 -> 207 ;
208 [label="html_ratio <= 0.1988\ngini = 0.48\nsamples = 5\nvalue = [3, 2]"] ;
206 -> 208 ;
209 [label="gini = 0.0\nsamples = 2\nvalue = [2, 0]"] ;
208 -> 209 ;
210 [label="html_ratio <= 0.1992\ngini = 0.4444\nsamples = 3\nvalue = [1, 2]"] ;
208 -> 210 ;
211 [label="gini = 0.0\nsamples = 2\nvalue = [0, 2]"] ;
210 -> 211 ;
212 [label="gini = 0.0\nsamples = 1\nvalue = [1, 0]"] ;
210 -> 212 ;
213 [label="gini = 0.0\nsamples = 3\nvalue = [0, 3]"] ;
109 -> 213 ;
214 [label="html_ratio <= 0.2014\ngini = 0.32\nsamples = 5\nvalue = [4, 1]"] ;
108 -> 214 ;
215 [label="gini = 0.0\nsamples = 4\nvalue = [4, 0]"] ;
214 -> 215 ;
216 [label="gini = 0.0\nsamples = 1\nvalue = [0, 1]"] ;
214 -> 216 ;
217 [label="gini = 0.0\nsamples = 4\nvalue = [4, 0]"] ;
107 -> 217 ;
218 [label="image_ratio <= 0.0082\ngini = 0.4082\nsamples = 14\nvalue = [4, 10]"] ;
106 -> 218 ;
219 [label="html_ratio <= 0.175\ngini = 0.2188\nsamples = 8\nvalue = [1, 7]"] ;
218 -> 219 ;
220 [label="gini = 0.0\nsamples = 4\nvalue = [0, 4]"] ;
219 -> 220 ;
221 [label="html_ratio <= 0.1828\ngini = 0.375\nsamples = 4\nvalue = [1, 3]"] ;
219 -> 221 ;
222 [label="gini = 0.0\nsamples = 1\nvalue = [1, 0]"] ;
221 -> 222 ;
223 [label="gini = 0.0\nsamples = 3\nvalue = [0, 3]"] ;
221 -> 223 ;
224 [label="image_ratio <= 0.0092\ngini = 0.5\nsamples = 6\nvalue = [3, 3]"] ;
218 -> 224 ;
225 [label="gini = 0.0\nsamples = 2\nvalue = [2, 0]"] ;
224 -> 225 ;
226 [label="html_ratio <= 0.1841\ngini = 0.375\nsamples = 4\nvalue = [1, 3]"] ;
224 -> 226 ;
227 [label="gini = 0.0\nsamples = 3\nvalue = [0, 3]"] ;
226 -> 227 ;
228 [label="gini = 0.0\nsamples = 1\nvalue = [1, 0]"] ;
226 -> 228 ;
229 [label="gini = 0.0\nsamples = 3\nvalue = [3, 0]"] ;
105 -> 229 ;
230 [label="gini = 0.0\nsamples = 5\nvalue = [0, 5]"] ;
104 -> 230 ;
231 [label="html_ratio <= 0.1709\ngini = 0.1975\nsamples = 9\nvalue = [8, 1]"] ;
103 -> 231 ;
232 [label="gini = 0.0\nsamples = 5\nvalue = [5, 0]"] ;
231 -> 232 ;
233 [label="html_ratio <= 0.1725\ngini = 0.375\nsamples = 4\nvalue = [3, 1]"] ;
231 -> 233 ;
234 [label="gini = 0.0\nsamples = 1\nvalue = [0, 1]"] ;
233 -> 234 ;
235 [label="gini = 0.0\nsamples = 3\nvalue = [3, 0]"] ;
233 -> 235 ;
236 [label="html_ratio <= 0.181\ngini = 0.4824\nsamples = 741\nvalue = [301, 440]"] ;
102 -> 236 ;
237 [label="image_ratio <= 0.0178\ngini = 0.4973\nsamples = 270\nvalue = [125, 145]"] ;
236 -> 237 ;
238 [label="gini = 0.0\nsamples = 5\nvalue = [0, 5]"] ;
237 -> 238 ;
239 [label="image_ratio <= 0.1094\ngini = 0.4984\nsamples = 265\nvalue = [125, 140]"] ;
237 -> 239 ;
240 [label="image_ratio <= 0.0971\ngini = 0.4967\nsamples = 111\nvalue = [60, 51]"] ;
239 -> 240 ;
241 [label="html_ratio <= 0.1747\ngini = 0.5\nsamples = 103\nvalue = [52, 51]"] ;
240 -> 241 ;
242 [label="html_ratio <= 0.1678\ngini = 0.492\nsamples = 71\nvalue = [31, 40]"] ;
241 -> 242 ;
243 [label="html_ratio <= 0.161\ngini = 0.4829\nsamples = 27\nvalue = [16, 11]"] ;
242 -> 243 ;
244 [label="image_ratio <= 0.021\ngini = 0.2778\nsamples = 6\nvalue = [1, 5]"] ;
243 -> 244 ;
245 [label="image_ratio <= 0.0192\ngini = 0.5\nsamples = 2\nvalue = [1, 1]"] ;
244 -> 245 ;
246 [label="gini = 0.0\nsamples = 1\nvalue = [0, 1]"] ;
245 -> 246 ;
247 [label="gini = 0.0\nsamples = 1\nvalue = [1, 0]"] ;
245 -> 247 ;
248 [label="gini = 0.0\nsamples = 4\nvalue = [0, 4]"] ;
244 -> 248 ;
249 [label="image_ratio <= 0.0486\ngini = 0.4082\nsamples = 21\nvalue = [15, 6]"] ;
243 -> 249 ;
250 [label="image_ratio <= 0.0444\ngini = 0.4898\nsamples = 14\nvalue = [8, 6]"] ;
249 -> 250 ;
251 [label="html_ratio <= 0.1655\ngini = 0.4444\nsamples = 12\nvalue = [8, 4]"] ;
250 -> 251 ;
252 [label="html_ratio <= 0.1647\ngini = 0.4898\nsamples = 7\nvalue = [3, 4]"] ;
251 -> 252 ;
253 [label="html_ratio <= 0.1623\ngini = 0.48\nsamples = 5\nvalue = [3, 2]"] ;
252 -> 253 ;
254 [label="gini = 0.0\nsamples = 1\nvalue = [0, 1]"] ;
253 -> 254 ;
255 [label="image_ratio <= 0.0202\ngini = 0.375\nsamples = 4\nvalue = [3, 1]"] ;
253 -> 255 ;
256 [label="html_ratio <= 0.1634\ngini = 0.5\nsamples = 2\nvalue = [1, 1]"] ;
255 -> 256 ;
257 [label="gini = 0.0\nsamples = 1\nvalue = [1, 0]"] ;
256 -> 257 ;
258 [label="gini = 0.0\nsamples = 1\nvalue = [0, 1]"] ;
256 -> 258 ;
259 [label="gini = 0.0\nsamples = 2\nvalue = [2, 0]"] ;
255 -> 259 ;
260 [label="gini = 0.0\nsamples = 2\nvalue = [0, 2]"] ;
252 -> 260 ;
261 [label="gini = 0.0\nsamples = 5\nvalue = [5, 0]"] ;
251 -> 261 ;
262 [label="gini = 0.0\nsamples = 2\nvalue = [0, 2]"] ;
250 -> 262 ;
263 [label="gini = 0.0\nsamples = 7\nvalue = [7, 0]"] ;
249 -> 263 ;
264 [label="image_ratio <= 0.0485\ngini = 0.4494\nsamples = 44\nvalue = [15, 29]"] ;
242 -> 264 ;
265 [label="image_ratio <= 0.0463\ngini = 0.4824\nsamples = 32\nvalue = [13, 19]"] ;
264 -> 265 ;
266 [label="image_ratio <= 0.0314\ngini = 0.4518\nsamples = 29\nvalue = [10, 19]"] ;
265 -> 266 ;
267 [label="image_ratio <= 0.0273\ngini = 0.4898\nsamples = 21\nvalue = [9, 12]"] ;
266 -> 267 ;
268 [label="image_ratio <= 0.0179\ngini = 0.4654\nsamples = 19\nvalue = [7, 12]"] ;
267 -> 268 ;
269 [label="gini = 0.0\nsamples = 1\nvalue = [1, 0]"] ;
268 -> 269 ;
270 [label="html_ratio <= 0.17\ngini = 0.4444\nsamples = 18\nvalue = [6, 12]"] ;
268 -> 270 ;
271 [label="gini = 0.0\nsamples = 5\nvalue = [0, 5]"] ;
270 -> 271 ;
272 [label="image_ratio <= 0.0191\ngini = 0.497\nsamples = 13\nvalue = [6, 7]"] ;
270 -> 272 ;
273 [label="gini = 0.0\nsamples = 2\nvalue = [0, 2]"] ;
272 -> 273 ;
274 [label="image_ratio <= 0.0262\ngini = 0.4959\nsamples = 11\nvalue = [6, 5]"] ;
272 -> 274 ;
275 [label="html_ratio <= 0.1712\ngini = 0.4444\nsamples = 9\nvalue = [6, 3]"] ;
274 -> 275 ;
276 [label="html_ratio <= 0.1702\ngini = 0.4444\nsamples = 3\nvalue = [1, 2]"] ;
275 -> 276 ;
277 [label="gini = 0.0\nsamples = 1\nvalue = [1, 0]"] ;
276 -> 277 ;
278 [label="gini = 0.0\nsamples = 2\nvalue = [0, 2]"] ;
276 -> 278 ;
279 [label="html_ratio <= 0.174\ngini = 0.2778\nsamples = 6\nvalue = [5, 1]"] ;
275 -> 279 ;
280 [label="gini = 0.0\nsamples = 5\nvalue = [5, 0]"] ;
279 -> 280 ;
281 [label="gini = 0.0\nsamples = 1\nvalue = [0, 1]"] ;
279 -> 281 ;
282 [label="gini = 0.0\nsamples = 2\nvalue = [0, 2]"] ;
274 -> 282 ;
283 [label="gini = 0.0\nsamples = 2\nvalue = [2, 0]"] ;
267 -> 283 ;
284 [label="html_ratio <= 0.1686\ngini = 0.2188\nsamples = 8\nvalue = [1, 7]"] ;
266 -> 284 ;
285 [label="gini = 0.0\nsamples = 1\nvalue = [1, 0]"] ;
284 -> 285 ;
286 [label="gini = 0.0\nsamples = 7\nvalue = [0, 7]"] ;
284 -> 286 ;
287 [label="gini = 0.0\nsamples = 3\nvalue = [3, 0]"] ;
265 -> 287 ;
288 [label="html_ratio <= 0.1706\ngini = 0.2778\nsamples = 12\nvalue = [2, 10]"] ;
264 -> 288 ;
289 [label="html_ratio <= 0.1702\ngini = 0.4444\nsamples = 6\nvalue = [2, 4]"] ;
288 -> 289 ;
290 [label="image_ratio <= 0.0635\ngini = 0.32\nsamples = 5\nvalue = [1, 4]"] ;
289 -> 290 ;
291 [label="image_ratio <= 0.0614\ngini = 0.5\nsamples = 2\nvalue = [1, 1]"] ;
290 -> 291 ;
292 [label="gini = 0.0\nsamples = 1\nvalue = [0, 1]"] ;
291 -> 292 ;
293 [label="gini = 0.0\nsamples = 1\nvalue = [1, 0]"] ;
291 -> 293 ;
294 [label="gini = 0.0\nsamples = 3\nvalue = [0, 3]"] ;
290 -> 294 ;
295 [label="gini = 0.0\nsamples = 1\nvalue = [1, 0]"] ;
289 -> 295 ;
296 [label="gini = 0.0\nsamples = 6\nvalue = [0, 6]"] ;
288 -> 296 ;
297 [label="image_ratio <= 0.0915\ngini = 0.4512\nsamples = 32\nvalue = [21, 11]"] ;
241 -> 297 ;
298 [label="image_ratio <= 0.0582\ngini = 0.3841\nsamples = 27\nvalue = [20, 7]"] ;
297 -> 298 ;
299 [label="image_ratio <= 0.0213\ngini = 0.4734\nsamples = 13\nvalue = [8, 5]"] ;
298 -> 299 ;
300 [label="gini = 0.0\nsamples = 3\nvalue = [3, 0]"] ;
299 -> 300 ;
301 [label="html_ratio <= 0.1798\ngini = 0.5\nsamples = 10\nvalue = [5, 5]"] ;
299 -> 301 ;
302 [label="html_ratio <= 0.1749\ngini = 0.4688\nsamples = 8\nvalue = [3, 5]"] ;
301 -> 302 ;
303 [label="gini = 0.0\nsamples = 1\nvalue = [1, 0]"] ;
302 -> 303 ;
304 [label="image_ratio <= 0.0336\ngini = 0.4082\nsamples = 7\nvalue = [2, 5]"] ;
302 -> 304 ;
305 [label="image_ratio <= 0.0298\ngini = 0.48\nsamples = 5\nvalue = [2, 3]"] ;
304 -> 305 ;
306 [label="image_ratio <= 0.023\ngini = 0.375\nsamples = 4\nvalue = [1, 3]"] ;
305 -> 306 ;
307 [label="image_ratio <= 0.0215\ngini = 0.5\nsamples = 2\nvalue = [1, 1]"] ;
306 -> 307 ;
308 [label="gini = 0.0\nsamples = 1\nvalue = [0, 1]"] ;
307 -> 308 ;
309 [label="gini = 0.0\nsamples = 1\nvalue = [1, 0]"] ;
307 -> 309 ;
310 [label="gini = 0.0\nsamples = 2\nvalue = [0, 2]"] ;
306 -> 310 ;
311 [label="gini = 0.0\nsamples = 1\nvalue = [1, 0]"] ;
305 -> 311 ;
312 [label="gini = 0.0\nsamples = 2\nvalue = [0, 2]"] ;
304 -> 312 ;
313 [label="gini = 0.0\nsamples = 2\nvalue = [2, 0]"] ;
301 -> 313 ;
314 [label="html_ratio <= 0.1789\ngini = 0.2449\nsamples = 14\nvalue = [12, 2]"] ;
298 -> 314 ;
315 [label="html_ratio <= 0.1787\ngini = 0.3457\nsamples = 9\nvalue = [7, 2]"] ;
314 -> 315 ;
316 [label="image_ratio <= 0.0888\ngini = 0.2188\nsamples = 8\nvalue = [7, 1]"] ;
315 -> 316 ;
317 [label="gini = 0.0\nsamples = 5\nvalue = [5, 0]"] ;
316 -> 317 ;
318 [label="image_ratio <= 0.0895\ngini = 0.4444\nsamples = 3\nvalue = [2, 1]"] ;
316 -> 318 ;
319 [label="gini = 0.0\nsamples = 1\nvalue = [0, 1]"] ;
318 -> 319 ;
320 [label="gini = 0.0\nsamples = 2\nvalue = [2, 0]"] ;
318 -> 320 ;
321 [label="gini = 0.0\nsamples = 1\nvalue = [0, 1]"] ;
315 -> 321 ;
322 [label="gini = 0.0\nsamples = 5\nvalue = [5, 0]"] ;
314 -> 322 ;
323 [label="html_ratio <= 0.1771\ngini = 0.32\nsamples = 5\nvalue = [1, 4]"] ;
297 -> 323 ;
324 [label="image_ratio <= 0.0939\ngini = 0.5\nsamples = 2\nvalue = [1, 1]"] ;
323 -> 324 ;
325 [label="gini = 0.0\nsamples = 1\nvalue = [1, 0]"] ;
324 -> 325 ;
326 [label="gini = 0.0\nsamples = 1\nvalue = [0, 1]"] ;
324 -> 326 ;
327 [label="gini = 0.0\nsamples = 3\nvalue = [0, 3]"] ;
323 -> 327 ;
328 [label="gini = 0.0\nsamples = 8\nvalue = [8, 0]"] ;
240 -> 328 ;
329 [label="image_ratio <= 0.1313\ngini = 0.4879\nsamples = 154\nvalue = [65, 89]"] ;
239 -> 329 ;
330 [label="html_ratio <= 0.1753\ngini = 0.1327\nsamples = 14\nvalue = [1, 13]"] ;
329 -> 330 ;
331 [label="gini = 0.0\nsamples = 12\nvalue = [0, 12]"] ;
330 -> 331 ;
332 [label="html_ratio <= 0.1782\ngini = 0.5\nsamples = 2\nvalue = [1, 1]"] ;
330 -> 332 ;
333 [label="gini = 0.0\nsamples = 1\nvalue = [1, 0]"] ;
332 -> 333 ;
334 [label="gini = 0.0\nsamples = 1\nvalue = [0, 1]"] ;
332 -> 334 ;
335 [label="html_ratio <= 0.1779\ngini = 0.4963\nsamples = 140\nvalue = [64, 76]"] ;
329 -> 335 ;
336 [label="html_ratio <= 0.1761\ngini = 0.4997\nsamples = 115\nvalue = [56, 59]"] ;
335 -> 336 ;
337 [label="image_ratio <= 0.2969\ngini = 0.4933\nsamples = 95\nvalue = [42, 53]"] ;
336 -> 337 ;
338 [label="image_ratio <= 0.1325\ngini = 0.4999\nsamples = 77\nvalue = [38, 39]"] ;
337 -> 338 ;
339 [label="gini = 0.0\nsamples = 2\nvalue = [2, 0]"] ;
338 -> 339 ;
340 [label="image_ratio <= 0.1453\ngini = 0.4992\nsamples = 75\nvalue = [36, 39]"] ;
338 -> 340 ;
341 [label="html_ratio <= 0.1718\ngini = 0.375\nsamples = 8\nvalue = [2, 6]"] ;
340 -> 341 ;
342 [label="image_ratio <= 0.1348\ngini = 0.2449\nsamples = 7\nvalue = [1, 6]"] ;
341 -> 342 ;
343 [label="html_ratio <= 0.1705\ngini = 0.5\nsamples = 2\nvalue = [1, 1]"] ;
342 -> 343 ;
344 [label="gini = 0.0\nsamples = 1\nvalue = [1, 0]"] ;
343 -> 344 ;
345 [label="gini = 0.0\nsamples = 1\nvalue = [0, 1]"] ;
343 -> 345 ;
346 [label="gini = 0.0\nsamples = 5\nvalue = [0, 5]"] ;
342 -> 346 ;
347 [label="gini = 0.0\nsamples = 1\nvalue = [1, 0]"] ;
341 -> 347 ;
348 [label="image_ratio <= 0.1613\ngini = 0.4999\nsamples = 67\nvalue = [34, 33]"] ;
340 -> 348 ;
349 [label="html_ratio <= 0.175\ngini = 0.375\nsamples = 12\nvalue = [9, 3]"] ;
348 -> 349 ;
350 [label="html_ratio <= 0.1618\ngini = 0.2975\nsamples = 11\nvalue = [9, 2]"] ;
349 -> 350 ;
351 [label="html_ratio <= 0.1615\ngini = 0.5\nsamples = 2\nvalue = [1, 1]"] ;
350 -> 351 ;
352 [label="gini = 0.0\nsamples = 1\nvalue = [1, 0]"] ;
351 -> 352 ;
353 [label="gini = 0.0\nsamples = 1\nvalue = [0, 1]"] ;
351 -> 353 ;
354 [label="html_ratio <= 0.1705\ngini = 0.1975\nsamples = 9\nvalue = [8, 1]"] ;
350 -> 354 ;
355 [label="gini = 0.0\nsamples = 6\nvalue = [6, 0]"] ;
354 -> 355 ;
356 [label="html_ratio <= 0.1723\ngini = 0.4444\nsamples = 3\nvalue = [2, 1]"] ;
354 -> 356 ;
357 [label="gini = 0.0\nsamples = 1\nvalue = [0, 1]"] ;
356 -> 357 ;
358 [label="gini = 0.0\nsamples = 2\nvalue = [2, 0]"] ;
356 -> 358 ;
359 [label="gini = 0.0\nsamples = 1\nvalue = [0, 1]"] ;
349 -> 359 ;
360 [label="html_ratio <= 0.164\ngini = 0.4959\nsamples = 55\nvalue = [25, 30]"] ;
348 -> 360 ;
361 [label="image_ratio <= 0.2489\ngini = 0.4592\nsamples = 14\nvalue = [9, 5]"] ;
360 -> 361 ;
362 [label="html_ratio <= 0.1618\ngini = 0.4688\nsamples = 8\nvalue = [3, 5]"] ;
361 -> 362 ;
363 [label="gini = 0.0\nsamples = 4\nvalue = [0, 4]"] ;
362 -> 363 ;
364 [label="html_ratio <= 0.1631\ngini = 0.375\nsamples = 4\nvalue = [3, 1]"] ;
362 -> 364 ;
365 [label="gini = 0.0\nsamples = 2\nvalue = [2, 0]"] ;
364 -> 365 ;
366 [label="image_ratio <= 0.1711\ngini = 0.5\nsamples = 2\nvalue = [1, 1]"] ;
364 -> 366 ;
367 [label="gini = 0.0\nsamples = 1\nvalue = [1, 0]"] ;
366 -> 367 ;
368 [label="gini = 0.0\nsamples = 1\nvalue = [0, 1]"] ;
366 -> 368 ;
369 [label="gini = 0.0\nsamples = 6\nvalue = [6, 0]"] ;
361 -> 369 ;
370 [label="html_ratio <= 0.1695\ngini = 0.4759\nsamples = 41\nvalue = [16, 25]"] ;
360 -> 370 ;
371 [label="image_ratio <= 0.2232\ngini = 0.2975\nsamples = 11\nvalue = [2, 9]"] ;
370 -> 371 ;
372 [label="image_ratio <= 0.1991\ngini = 0.5\nsamples = 4\nvalue = [2, 2]"] ;
371 -> 372 ;
373 [label="gini = 0.0\nsamples = 2\nvalue = [0, 2]"] ;
372 -> 373 ;
374 [label="gini = 0.0\nsamples = 2\nvalue = [2, 0]"] ;
372 -> 374 ;
375 [label="gini = 0.0\nsamples = 7\nvalue = [0, 7]"] ;
371 -> 375 ;
376 [label="html_ratio <= 0.1705\ngini = 0.4978\nsamples = 30\nvalue = [14, 16]"] ;
370 -> 376 ;
377 [label="gini = 0.0\nsamples = 4\nvalue = [4, 0]"] ;
376 -> 377 ;
378 [label="html_ratio <= 0.1744\ngini = 0.4734\nsamples = 26\nvalue = [10, 16]"] ;
376 -> 378 ;
379 [label="html_ratio <= 0.173\ngini = 0.375\nsamples = 16\nvalue = [4, 12]"] ;
378 -> 379 ;
380 [label="image_ratio <= 0.186\ngini = 0.4628\nsamples = 11\nvalue = [4, 7]"] ;
379 -> 380 ;
381 [label="gini = 0.0\nsamples = 3\nvalue = [0, 3]"] ;
380 -> 381 ;
382 [label="image_ratio <= 0.2094\ngini = 0.5\nsamples = 8\nvalue = [4, 4]"] ;
380 -> 382 ;
383 [label="gini = 0.0\nsamples = 2\nvalue = [2, 0]"] ;
382 -> 383 ;
384 [label="image_ratio <= 0.2383\ngini = 0.4444\nsamples = 6\nvalue = [2, 4]"] ;
382 -> 384 ;
385 [label="gini = 0.0\nsamples = 2\nvalue = [0, 2]"] ;
384 -> 385 ;
386 [label="image_ratio <= 0.269\ngini = 0.5\nsamples = 4\nvalue = [2, 2]"] ;
384 -> 386 ;
387 [label="gini = 0.0\nsamples = 2\nvalue = [2, 0]"] ;
386 -> 387 ;
388 [label="gini = 0.0\nsamples = 2\nvalue = [0, 2]"] ;
386 -> 388 ;
389 [label="gini = 0.0\nsamples = 5\nvalue = [0, 5]"] ;
379 -> 389 ;
390 [label="html_ratio <= 0.175\ngini = 0.48\nsamples = 10\nvalue = [6, 4]"] ;
378 -> 390 ;
391 [label="gini = 0.0\nsamples = 4\nvalue = [4, 0]"] ;
390 -> 391 ;
392 [label="image_ratio <= 0.1926\ngini = 0.4444\nsamples = 6\nvalue = [2, 4]"] ;
390 -> 392 ;
393 [label="html_ratio <= 0.1756\ngini = 0.4444\nsamples = 3\nvalue = [2, 1]"] ;
392 -> 393 ;
394 [label="gini = 0.0\nsamples = 2\nvalue = [2, 0]"] ;
393 -> 394 ;
395 [label="gini = 0.0\nsamples = 1\nvalue = [0, 1]"] ;
393 -> 395 ;
396 [label="gini = 0.0\nsamples = 3\nvalue = [0, 3]"] ;
392 -> 396 ;
397 [label="image_ratio <= 0.3181\ngini = 0.3457\nsamples = 18\nvalue = [4, 14]"] ;
337 -> 397 ;
398 [label="gini = 0.0\nsamples = 5\nvalue = [0, 5]"] ;
397 -> 398 ;
399 [label="image_ratio <= 0.3225\ngini = 0.426\nsamples = 13\nvalue = [4, 9]"] ;
397 -> 399 ;
400 [label="gini = 0.0\nsamples = 1\nvalue = [1, 0]"] ;
399 -> 400 ;
401 [label="html_ratio <= 0.1722\ngini = 0.375\nsamples = 12\nvalue = [3, 9]"] ;
399 -> 401 ;
402 [label="html_ratio <= 0.1703\ngini = 0.4688\nsamples = 8\nvalue = [3, 5]"] ;
401 -> 402 ;
403 [label="image_ratio <= 0.3631\ngini = 0.4082\nsamples = 7\nvalue = [2, 5]"] ;
402 -> 403 ;
404 [label="html_ratio <= 0.1666\ngini = 0.2778\nsamples = 6\nvalue = [1, 5]"] ;
403 -> 404 ;
405 [label="gini = 0.0\nsamples = 4\nvalue = [0, 4]"] ;
404 -> 405 ;
406 [label="html_ratio <= 0.1677\ngini = 0.5\nsamples = 2\nvalue = [1, 1]"] ;
404 -> 406 ;
407 [label="gini = 0.0\nsamples = 1\nvalue = [1, 0]"] ;
406 -> 407 ;
408 [label="gini = 0.0\nsamples = 1\nvalue = [0, 1]"] ;
406 -> 408 ;
409 [label="gini = 0.0\nsamples = 1\nvalue = [1, 0]"] ;
403 -> 409 ;
410 [label="gini = 0.0\nsamples = 1\nvalue = [1, 0]"] ;
402 -> 410 ;
411 [label="gini = 0.0\nsamples = 4\nvalue = [0, 4]"] ;
401 -> 411 ;
412 [label="image_ratio <= 0.1797\ngini = 0.42\nsamples = 20\nvalue = [14, 6]"] ;
336 -> 412 ;
413 [label="html_ratio <= 0.1777\ngini = 0.32\nsamples = 5\nvalue = [1, 4]"] ;
412 -> 413 ;
414 [label="gini = 0.0\nsamples = 4\nvalue = [0, 4]"] ;
413 -> 414 ;
415 [label="gini = 0.0\nsamples = 1\nvalue = [1, 0]"] ;
413 -> 415 ;
416 [label="html_ratio <= 0.1773\ngini = 0.2311\nsamples = 15\nvalue = [13, 2]"] ;
412 -> 416 ;
417 [label="gini = 0.0\nsamples = 10\nvalue = [10, 0]"] ;
416 -> 417 ;
418 [label="html_ratio <= 0.1776\ngini = 0.48\nsamples = 5\nvalue = [3, 2]"] ;
416 -> 418 ;
419 [label="image_ratio <= 0.2229\ngini = 0.4444\nsamples = 3\nvalue = [1, 2]"] ;
418 -> 419 ;
420 [label="gini = 0.0\nsamples = 1\nvalue = [1, 0]"] ;
419 -> 420 ;
421 [label="gini = 0.0\nsamples = 2\nvalue = [0, 2]"] ;
419 -> 421 ;
422 [label="gini = 0.0\nsamples = 2\nvalue = [2, 0]"] ;
418 -> 422 ;
423 [label="html_ratio <= 0.1791\ngini = 0.4352\nsamples = 25\nvalue = [8, 17]"] ;
335 -> 423 ;
424 [label="image_ratio <= 0.1513\ngini = 0.1975\nsamples = 9\nvalue = [1, 8]"] ;
423 -> 424 ;
425 [label="gini = 0.0\nsamples = 1\nvalue = [1, 0]"] ;
424 -> 425 ;
426 [label="gini = 0.0\nsamples = 8\nvalue = [0, 8]"] ;
424 -> 426 ;
427 [label="image_ratio <= 0.1688\ngini = 0.4922\nsamples = 16\nvalue = [7, 9]"] ;
423 -> 427 ;
428 [label="gini = 0.0\nsamples = 4\nvalue = [0, 4]"] ;
427 -> 428 ;
429 [label="image_ratio <= 0.2065\ngini = 0.4861\nsamples = 12\nvalue = [7, 5]"] ;
427 -> 429 ;
430 [label="gini = 0.0\nsamples = 3\nvalue = [3, 0]"] ;
429 -> 430 ;
431 [label="html_ratio <= 0.1791\ngini = 0.4938\nsamples = 9\nvalue = [4, 5]"] ;
429 -> 431 ;
432 [label="gini = 0.0\nsamples = 1\nvalue = [1, 0]"] ;
431 -> 432 ;
433 [label="image_ratio <= 0.2763\ngini = 0.4688\nsamples = 8\nvalue = [3, 5]"] ;
431 -> 433 ;
434 [label="gini = 0.0\nsamples = 3\nvalue = [0, 3]"] ;
433 -> 434 ;
435 [label="html_ratio <= 0.18\ngini = 0.48\nsamples = 5\nvalue = [3, 2]"] ;
433 -> 435 ;
436 [label="html_ratio <= 0.1792\ngini = 0.4444\nsamples = 3\nvalue = [1, 2]"] ;
435 -> 436 ;
437 [label="gini = 0.0\nsamples = 1\nvalue = [0, 1]"] ;
436 -> 437 ;
438 [label="image_ratio <= 0.342\ngini = 0.5\nsamples = 2\nvalue = [1, 1]"] ;
436 -> 438 ;
439 [label="gini = 0.0\nsamples = 1\nvalue = [1, 0]"] ;
438 -> 439 ;
440 [label="gini = 0.0\nsamples = 1\nvalue = [0, 1]"] ;
438 -> 440 ;
441 [label="gini = 0.0\nsamples = 2\nvalue = [2, 0]"] ;
435 -> 441 ;
442 [label="html_ratio <= 0.2012\ngini = 0.4681\nsamples = 471\nvalue = [176, 295]"] ;
236 -> 442 ;
443 [label="image_ratio <= 0.3647\ngini = 0.4713\nsamples = 463\nvalue = [176, 287]"] ;
442 -> 443 ;
444 [label="image_ratio <= 0.2512\ngini = 0.4736\nsamples = 457\nvalue = [176, 281]"] ;
443 -> 444 ;
445 [label="image_ratio <= 0.1214\ngini = 0.4614\nsamples = 385\nvalue = [139, 246]"] ;
444 -> 445 ;
446 [label="image_ratio <= 0.1192\ngini = 0.48\nsamples = 225\nvalue = [90, 135]"] ;
445 -> 446 ;
447 [label="html_ratio <= 0.201\ngini = 0.4766\nsamples = 222\nvalue = [87, 135]"] ;
446 -> 447 ;
448 [label="html_ratio <= 0.1999\ngini = 0.4742\nsamples = 220\nvalue = [85, 135]"] ;
447 -> 448 ;
449 [label="html_ratio <= 0.197\ngini = 0.4819\nsamples = 205\nvalue = [83, 122]"] ;
448 -> 449 ;
450 [label="html_ratio <= 0.1817\ngini = 0.4672\nsamples = 164\nvalue = [61, 103]"] ;
449 -> 450 ;
451 [label="html_ratio <= 0.1814\ngini = 0.375\nsamples = 4\nvalue = [3, 1]"] ;
450 -> 451 ;
452 [label="gini = 0.0\nsamples = 1\nvalue = [0, 1]"] ;
451 -> 452 ;
453 [label="gini = 0.0\nsamples = 3\nvalue = [3, 0]"] ;
451 -> 453 ;
454 [label="image_ratio <= 0.0387\ngini = 0.4622\nsamples = 160\nvalue = [58, 102]"] ;
450 -> 454 ;
455 [label="image_ratio <= 0.028\ngini = 0.5\nsamples = 20\nvalue = [10, 10]"] ;
454 -> 455 ;
456 [label="html_ratio <= 0.1917\ngini = 0.4444\nsamples = 12\nvalue = [4, 8]"] ;
455 -> 456 ;
457 [label="html_ratio <= 0.1841\ngini = 0.2188\nsamples = 8\nvalue = [1, 7]"] ;
456 -> 457 ;
458 [label="image_ratio <= 0.0208\ngini = 0.5\nsamples = 2\nvalue = [1, 1]"] ;
457 -> 458 ;
459 [label="gini = 0.0\nsamples = 1\nvalue = [0, 1]"] ;
458 -> 459 ;
460 [label="gini = 0.0\nsamples = 1\nvalue = [1, 0]"] ;
458 -> 460 ;
461 [label="gini = 0.0\nsamples = 6\nvalue = [0, 6]"] ;
457 -> 461 ;
462 [label="html_ratio <= 0.1957\ngini = 0.375\nsamples = 4\nvalue = [3, 1]"] ;
456 -> 462 ;
463 [label="gini = 0.0\nsamples = 3\nvalue = [3, 0]"] ;
462 -> 463 ;
464 [label="gini = 0.0\nsamples = 1\nvalue = [0, 1]"] ;
462 -> 464 ;
465 [label="html_ratio <= 0.1874\ngini = 0.375\nsamples = 8\nvalue = [6, 2]"] ;
455 -> 465 ;
466 [label="gini = 0.0\nsamples = 2\nvalue = [2, 0]"] ;
465 -> 466 ;
467 [label="html_ratio <= 0.1885\ngini = 0.4444\nsamples = 6\nvalue = [4, 2]"] ;
465 -> 467 ;
468 [label="gini = 0.0\nsamples = 1\nvalue = [0, 1]"] ;
467 -> 468 ;
469 [label="image_ratio <= 0.034\ngini = 0.32\nsamples = 5\nvalue = [4, 1]"] ;
467 -> 469 ;
470 [label="image_ratio <= 0.0299\ngini = 0.5\nsamples = 2\nvalue = [1, 1]"] ;
469 -> 470 ;
471 [label="gini = 0.0\nsamples = 1\nvalue = [1, 0]"] ;
470 -> 471 ;
472 [label="gini = 0.0\nsamples = 1\nvalue = [0, 1]"] ;
470 -> 472 ;
473 [label="gini = 0.0\nsamples = 3\nvalue = [3, 0]"] ;
469 -> 473 ;
474 [label="html_ratio <= 0.1905\ngini = 0.4506\nsamples = 140\nvalue = [48, 92]"] ;
454 -> 474 ;
475 [label="html_ratio <= 0.1884\ngini = 0.485\nsamples = 75\nvalue = [31, 44]"] ;
474 -> 475 ;
476 [label="image_ratio <= 0.06\ngini = 0.4321\nsamples = 57\nvalue = [18, 39]"] ;
475 -> 476 ;
477 [label="image_ratio <= 0.0549\ngini = 0.497\nsamples = 13\nvalue = [7, 6]"] ;
476 -> 477 ;
478 [label="html_ratio <= 0.1828\ngini = 0.4444\nsamples = 9\nvalue = [3, 6]"] ;
477 -> 478 ;
479 [label="gini = 0.0\nsamples = 1\nvalue = [1, 0]"] ;
478 -> 479 ;
480 [label="image_ratio <= 0.0478\ngini = 0.375\nsamples = 8\nvalue = [2, 6]"] ;
478 -> 480 ;
481 [label="gini = 0.0\nsamples = 3\nvalue = [0, 3]"] ;
480 -> 481 ;
482 [label="image_ratio <= 0.0521\ngini = 0.48\nsamples = 5\nvalue = [2, 3]"] ;
480 -> 482 ;
483 [label="gini = 0.0\nsamples = 2\nvalue = [2, 0]"] ;
482 -> 483 ;
484 [label="gini = 0.0\nsamples = 3\nvalue = [0, 3]"] ;
482 -> 484 ;
485 [label="gini = 0.0\nsamples = 4\nvalue = [4, 0]"] ;
477 -> 485 ;
486 [label="image_ratio <= 0.0886\ngini = 0.375\nsamples = 44\nvalue = [11, 33]"] ;
476 -> 486 ;
487 [label="gini = 0.0\nsamples = 16\nvalue = [0, 16]"] ;
486 -> 487 ;
488 [label="image_ratio <= 0.1134\ngini = 0.477\nsamples = 28\nvalue = [11, 17]"] ;
486 -> 488 ;
489 [label="image_ratio <= 0.0945\ngini = 0.4938\nsamples = 18\nvalue = [10, 8]"] ;
488 -> 489 ;
490 [label="gini = 0.0\nsamples = 3\nvalue = [3, 0]"] ;
489 -> 490 ;
491 [label="image_ratio <= 0.0972\ngini = 0.4978\nsamples = 15\nvalue = [7, 8]"] ;
489 -> 491 ;
492 [label="gini = 0.0\nsamples = 3\nvalue = [0, 3]"] ;
491 -> 492 ;
493 [label="html_ratio <= 0.1867\ngini = 0.4861\nsamples = 12\nvalue = [7, 5]"] ;
491 -> 493 ;
494 [label="html_ratio <= 0.1848\ngini = 0.4938\nsamples = 9\nvalue = [4, 5]"] ;
493 -> 494 ;
495 [label="image_ratio <= 0.109\ngini = 0.375\nsamples = 4\nvalue = [3, 1]"] ;
494 -> 495 ;
496 [label="gini = 0.0\nsamples = 3\nvalue = [3, 0]"] ;
495 -> 496 ;
497 [label="gini = 0.0\nsamples = 1\nvalue = [0, 1]"] ;
495 -> 497 ;
498 [label="image_ratio <= 0.1\ngini = 0.32\nsamples = 5\nvalue = [1, 4]"] ;
494 -> 498 ;
499 [label="image_ratio <= 0.0984\ngini = 0.5\nsamples = 2\nvalue = [1, 1]"] ;
498 -> 499 ;
500 [label="gini = 0.0\nsamples = 1\nvalue = [0, 1]"] ;
499 -> 500 ;
501 [label="gini = 0.0\nsamples = 1\nvalue = [1, 0]"] ;
499 -> 501 ;
502 [label="gini = 0.0\nsamples = 3\nvalue = [0, 3]"] ;
498 -> 502 ;
503 [label="gini = 0.0\nsamples = 3\nvalue = [3, 0]"] ;
493 -> 503 ;
504 [label="image_ratio <= 0.1174\ngini = 0.18\nsamples = 10\nvalue = [1, 9]"] ;
488 -> 504 ;
505 [label="gini = 0.0\nsamples = 7\nvalue = [0, 7]"] ;
504 -> 505 ;
506 [label="image_ratio <= 0.1178\ngini = 0.4444\nsamples = 3\nvalue = [1, 2]"] ;
504 -> 506 ;
507 [label="gini = 0.0\nsamples = 1\nvalue = [1, 0]"] ;
506 -> 507 ;
508 [label="gini = 0.0\nsamples = 2\nvalue = [0, 2]"] ;
506 -> 508 ;
509 [label="image_ratio <= 0.0743\ngini = 0.4012\nsamples = 18\nvalue = [13, 5]"] ;
475 -> 509 ;
510 [label="html_ratio <= 0.1897\ngini = 0.48\nsamples = 5\nvalue = [2, 3]"] ;
509 -> 510 ;
511 [label="html_ratio <= 0.189\ngini = 0.375\nsamples = 4\nvalue = [1, 3]"] ;
510 -> 511 ;
512 [label="image_ratio <= 0.0634\ngini = 0.5\nsamples = 2\nvalue = [1, 1]"] ;
511 -> 512 ;
513 [label="gini = 0.0\nsamples = 1\nvalue = [0, 1]"] ;
512 -> 513 ;
514 [label="gini = 0.0\nsamples = 1\nvalue = [1, 0]"] ;
512 -> 514 ;
515 [label="gini = 0.0\nsamples = 2\nvalue = [0, 2]"] ;
511 -> 515 ;
516 [label="gini = 0.0\nsamples = 1\nvalue = [1, 0]"] ;
510 -> 516 ;
517 [label="image_ratio <= 0.1049\ngini = 0.2604\nsamples = 13\nvalue = [11, 2]"] ;
509 -> 517 ;
518 [label="gini = 0.0\nsamples = 8\nvalue = [8, 0]"] ;
517 -> 518 ;
519 [label="image_ratio <= 0.1112\ngini = 0.48\nsamples = 5\nvalue = [3, 2]"] ;
517 -> 519 ;
520 [label="gini = 0.0\nsamples = 2\nvalue = [0, 2]"] ;
519 -> 520 ;
521 [label="gini = 0.0\nsamples = 3\nvalue = [3, 0]"] ;
519 -> 521 ;
522 [label="image_ratio <= 0.1064\ngini = 0.3863\nsamples = 65\nvalue = [17, 48]"] ;
474 -> 522 ;
523 [label="image_ratio <= 0.0464\ngini = 0.32\nsamples = 50\nvalue = [10, 40]"] ;
522 -> 523 ;
524 [label="gini = 0.0\nsamples = 6\nvalue = [0, 6]"] ;
523 -> 524 ;
525 [label="image_ratio <= 0.0468\ngini = 0.3512\nsamples = 44\nvalue = [10, 34]"] ;
523 -> 525 ;
526 [label="gini = 0.0\nsamples = 1\nvalue = [1, 0]"] ;
525 -> 526 ;
527 [label="html_ratio <= 0.1925\ngini = 0.331\nsamples = 43\nvalue = [9, 34]"] ;
525 -> 527 ;
528 [label="gini = 0.0\nsamples = 11\nvalue = [0, 11]"] ;
527 -> 528 ;
529 [label="image_ratio <= 0.0502\ngini = 0.4043\nsamples = 32\nvalue = [9, 23]"] ;
527 -> 529 ;
530 [label="html_ratio <= 0.1939\ngini = 0.48\nsamples = 5\nvalue = [3, 2]"] ;
529 -> 530 ;
531 [label="gini = 0.0\nsamples = 2\nvalue = [0, 2]"] ;
530 -> 531 ;
532 [label="gini = 0.0\nsamples = 3\nvalue = [3, 0]"] ;
530 -> 532 ;
533 [label="html_ratio <= 0.1942\ngini = 0.3457\nsamples = 27\nvalue = [6, 21]"] ;
529 -> 533 ;
534 [label="image_ratio <= 0.0704\ngini = 0.5\nsamples = 8\nvalue = [4, 4]"] ;
533 -> 534 ;
535 [label="gini = 0.0\nsamples = 3\nvalue = [3, 0]"] ;
534 -> 535 ;
536 [label="html_ratio <= 0.1927\ngini = 0.32\nsamples = 5\nvalue = [1, 4]"] ;
534 -> 536 ;
537 [label="gini = 0.0\nsamples = 1\nvalue = [1, 0]"] ;
536 -> 537 ;
538 [label="gini = 0.0\nsamples = 4\nvalue = [0, 4]"] ;
536 -> 538 ;
539 [label="image_ratio <= 0.0796\ngini = 0.1884\nsamples = 19\nvalue = [2, 17]"] ;
533 -> 539 ;
540 [label="gini = 0.0\nsamples = 11\nvalue = [0, 11]"] ;
539 -> 540 ;
541 [label="image_ratio <= 0.0829\ngini = 0.375\nsamples = 8\nvalue = [2, 6]"] ;
539 -> 541 ;
542 [label="gini = 0.0\nsamples = 1\nvalue = [1, 0]"] ;
541 -> 542 ;
543 [label="html_ratio <= 0.1946\ngini = 0.2449\nsamples = 7\nvalue = [1, 6]"] ;
541 -> 543 ;
544 [label="html_ratio <= 0.1944\ngini = 0.5\nsamples = 2\nvalue = [1, 1]"] ;
543 -> 544 ;
545 [label="gini = 0.0\nsamples = 1\nvalue = [0, 1]"] ;
544 -> 545 ;
546 [label="gini = 0.0\nsamples = 1\nvalue = [1, 0]"] ;
544 -> 546 ;
547 [label="gini = 0.0\nsamples = 5\nvalue = [0, 5]"] ;
543 -> 547 ;
548 [label="html_ratio <= 0.1959\ngini = 0.4978\nsamples = 15\nvalue = [7, 8]"] ;
522 -> 548 ;
549 [label="image_ratio <= 0.1136\ngini = 0.3967\nsamples = 11\nvalue = [3, 8]"] ;
548 -> 549 ;
550 [label="image_ratio <= 0.1111\ngini = 0.5\nsamples = 6\nvalue = [3, 3]"] ;
549 -> 550 ;
551 [label="image_ratio <= 0.1082\ngini = 0.375\nsamples = 4\nvalue = [1, 3]"] ;
550 -> 551 ;
552 [label="gini = 0.0\nsamples = 1\nvalue = [1, 0]"] ;
551 -> 552 ;
553 [label="gini = 0.0\nsamples = 3\nvalue = [0, 3]"] ;
551 -> 553 ;
554 [label="gini = 0.0\nsamples = 2\nvalue = [2, 0]"] ;
550 -> 554 ;
555 [label="gini = 0.0\nsamples = 5\nvalue = [0, 5]"] ;
549 -> 555 ;
556 [label="gini = 0.0\nsamples = 4\nvalue = [4, 0]"] ;
548 -> 556 ;
557 [label="html_ratio <= 0.1973\ngini = 0.4973\nsamples = 41\nvalue = [22, 19]"] ;
449 -> 557 ;
558 [label="gini = 0.0\nsamples = 4\nvalue = [4, 0]"] ;
557 -> 558 ;
559 [label="html_ratio <= 0.1978\ngini = 0.4996\nsamples = 37\nvalue = [18, 19]"] ;
557 -> 559 ;
560 [label="image_ratio <= 0.0983\ngini = 0.375\nsamples = 8\nvalue = [2, 6]"] ;
559 -> 560 ;
561 [label="gini = 0.0\nsamples = 5\nvalue = [0, 5]"] ;
560 -> 561 ;
562 [label="image_ratio <= 0.1076\ngini = 0.4444\nsamples = 3\nvalue = [2, 1]"] ;
560 -> 562 ;
563 [label="gini = 0.0\nsamples = 2\nvalue = [2, 0]"] ;
562 -> 563 ;
564 [label="gini = 0.0\nsamples = 1\nvalue = [0, 1]"] ;
562 -> 564 ;
565 [label="html_ratio <= 0.1988\ngini = 0.4946\nsamples = 29\nvalue = [16, 13]"] ;
559 -> 565 ;
566 [label="image_ratio <= 0.0863\ngini = 0.355\nsamples = 13\nvalue = [10, 3]"] ;
565 -> 566 ;
567 [label="gini = 0.0\nsamples = 5\nvalue = [5, 0]"] ;
566 -> 567 ;
568 [label="image_ratio <= 0.0873\ngini = 0.4688\nsamples = 8\nvalue = [5, 3]"] ;
566 -> 568 ;
569 [label="gini = 0.0\nsamples = 1\nvalue = [0, 1]"] ;
568 -> 569 ;
570 [label="html_ratio <= 0.1983\ngini = 0.4082\nsamples = 7\nvalue = [5, 2]"] ;
568 -> 570 ;
571 [label="gini = 0.0\nsamples = 3\nvalue = [3, 0]"] ;
570 -> 571 ;
572 [label="html_ratio <= 0.1983\ngini = 0.5\nsamples = 4\nvalue = [2, 2]"] ;
570 -> 572 ;
573 [label="gini = 0.0\nsamples = 1\nvalue = [0, 1]"] ;
572 -> 573 ;
574 [label="html_ratio <= 0.1984\ngini = 0.4444\nsamples = 3\nvalue = [2, 1]"] ;
572 -> 574 ;
575 [label="gini = 0.0\nsamples = 1\nvalue = [1, 0]"] ;
574 -> 575 ;
576 [label="html_ratio <= 0.1986\ngini = 0.5\nsamples = 2\nvalue = [1, 1]"] ;
574 -> 576 ;
577 [label="gini = 0.0\nsamples = 1\nvalue = [0, 1]"] ;
576 -> 577 ;
578 [label="gini = 0.0\nsamples = 1\nvalue = [1, 0]"] ;
576 -> 578 ;
579 [label="image_ratio <= 0.087\ngini = 0.4688\nsamples = 16\nvalue = [6, 10]"] ;
565 -> 579 ;
580 [label="html_ratio <= 0.1991\ngini = 0.4959\nsamples = 11\nvalue = [6, 5]"] ;
579 -> 580 ;
581 [label="gini = 0.0\nsamples = 3\nvalue = [0, 3]"] ;
580 -> 581 ;
582 [label="image_ratio <= 0.0712\ngini = 0.375\nsamples = 8\nvalue = [6, 2]"] ;
580 -> 582 ;
583 [label="image_ratio <= 0.0564\ngini = 0.4444\nsamples = 3\nvalue = [1, 2]"] ;
582 -> 583 ;
584 [label="gini = 0.0\nsamples = 1\nvalue = [1, 0]"] ;
583 -> 584 ;
585 [label="gini = 0.0\nsamples = 2\nvalue = [0, 2]"] ;
583 -> 585 ;
586 [label="gini = 0.0\nsamples = 5\nvalue = [5, 0]"] ;
582 -> 586 ;
587 [label="gini = 0.0\nsamples = 5\nvalue = [0, 5]"] ;
579 -> 587 ;
588 [label="image_ratio <= 0.0507\ngini = 0.2311\nsamples = 15\nvalue = [2, 13]"] ;
448 -> 588 ;
589 [label="html_ratio <= 0.2007\ngini = 0.5\nsamples = 4\nvalue = [2, 2]"] ;
588 -> 589 ;
590 [label="gini = 0.0\nsamples = 2\nvalue = [0, 2]"] ;
589 -> 590 ;
591 [label="gini = 0.0\nsamples = 2\nvalue = [2, 0]"] ;
589 -> 591 ;
592 [label="gini = 0.0\nsamples = 11\nvalue = [0, 11]"] ;
588 -> 592 ;
593 [label="gini = 0.0\nsamples = 2\nvalue = [2, 0]"] ;
447 -> 593 ;
594 [label="gini = 0.0\nsamples = 3\nvalue = [3, 0]"] ;
446 -> 594 ;
595 [label="html_ratio <= 0.1843\ngini = 0.4249\nsamples = 160\nvalue = [49, 111]"] ;
445 -> 595 ;
596 [label="html_ratio <= 0.1834\ngini = 0.18\nsamples = 20\nvalue = [2, 18]"] ;
595 -> 596 ;
597 [label="html_ratio <= 0.1829\ngini = 0.32\nsamples = 10\nvalue = [2, 8]"] ;
596 -> 597 ;
598 [label="gini = 0.0\nsamples = 8\nvalue = [0, 8]"] ;
597 -> 598 ;
599 [label="gini = 0.0\nsamples = 2\nvalue = [2, 0]"] ;
597 -> 599 ;
600 [label="gini = 0.0\nsamples = 10\nvalue = [0, 10]"] ;
596 -> 600 ;
601 [label="html_ratio <= 0.1845\ngini = 0.446\nsamples = 140\nvalue = [47, 93]"] ;
595 -> 601 ;
602 [label="gini = 0.0\nsamples = 3\nvalue = [3, 0]"] ;
601 -> 602 ;
603 [label="image_ratio <= 0.1256\ngini = 0.436\nsamples = 137\nvalue = [44, 93]"] ;
601 -> 603 ;
604 [label="gini = 0.0\nsamples = 5\nvalue = [0, 5]"] ;
603 -> 604 ;
605 [label="image_ratio <= 0.1261\ngini = 0.4444\nsamples = 132\nvalue = [44, 88]"] ;
603 -> 605 ;
606 [label="gini = 0.0\nsamples = 1\nvalue = [1, 0]"] ;
605 -> 606 ;
607 [label="html_ratio <= 0.2012\ngini = 0.441\nsamples = 131\nvalue = [43, 88]"] ;
605 -> 607 ;
608 [label="image_ratio <= 0.1804\ngini = 0.4374\nsamples = 130\nvalue = [42, 88]"] ;
607 -> 608 ;
609 [label="html_ratio <= 0.1961\ngini = 0.3967\nsamples = 66\nvalue = [18, 48]"] ;
608 -> 609 ;
610 [label="image_ratio <= 0.1293\ngini = 0.4444\nsamples = 48\nvalue = [16, 32]"] ;
609 -> 610 ;
611 [label="gini = 0.0\nsamples = 5\nvalue = [0, 5]"] ;
610 -> 611 ;
612 [label="image_ratio <= 0.1312\ngini = 0.4673\nsamples = 43\nvalue = [16, 27]"] ;
610 -> 612 ;
613 [label="gini = 0.0\nsamples = 2\nvalue = [2, 0]"] ;
612 -> 613 ;
614 [label="html_ratio <= 0.1961\ngini = 0.4497\nsamples = 41\nvalue = [14, 27]"] ;
612 -> 614 ;
615 [label="html_ratio <= 0.1848\ngini = 0.4387\nsamples = 40\nvalue = [13, 27]"] ;
614 -> 615 ;
616 [label="gini = 0.0\nsamples = 3\nvalue = [0, 3]"] ;
615 -> 616 ;
617 [label="html_ratio <= 0.185\ngini = 0.4558\nsamples = 37\nvalue = [13, 24]"] ;
615 -> 617 ;
618 [label="gini = 0.0\nsamples = 2\nvalue = [2, 0]"] ;
617 -> 618 ;
619 [label="image_ratio <= 0.1541\ngini = 0.431\nsamples = 35\nvalue = [11, 24]"] ;
617 -> 619 ;
620 [label="image_ratio <= 0.1528\ngini = 0.4922\nsamples = 16\nvalue = [7, 9]"] ;
619 -> 620 ;
621 [label="html_ratio <= 0.1891\ngini = 0.4592\nsamples = 14\nvalue = [5, 9]"] ;
620 -> 621 ;
622 [label="gini = 0.0\nsamples = 3\nvalue = [0, 3]"] ;
621 -> 622 ;
623 [label="html_ratio <= 0.1954\ngini = 0.4959\nsamples = 11\nvalue = [5, 6]"] ;
621 -> 623 ;
624 [label="image_ratio <= 0.1353\ngini = 0.4938\nsamples = 9\nvalue = [5, 4]"] ;
623 -> 624 ;
625 [label="html_ratio <= 0.1917\ngini = 0.4898\nsamples = 7\nvalue = [3, 4]"] ;
624 -> 625 ;
626 [label="gini = 0.0\nsamples = 2\nvalue = [0, 2]"] ;
625 -> 626 ;
627 [label="html_ratio <= 0.1934\ngini = 0.48\nsamples = 5\nvalue = [3, 2]"] ;
625 -> 627 ;
628 [label="gini = 0.0\nsamples = 2\nvalue = [2, 0]"] ;
627 -> 628 ;
629 [label="html_ratio <= 0.1942\ngini = 0.4444\nsamples = 3\nvalue = [1, 2]"] ;
627 -> 629 ;
630 [label="gini = 0.0\nsamples = 2\nvalue = [0, 2]"] ;
629 -> 630 ;
631 [label="gini = 0.0\nsamples = 1\nvalue = [1, 0]"] ;
629 -> 631 ;
632 [label="gini = 0.0\nsamples = 2\nvalue = [2, 0]"] ;
624 -> 632 ;
633 [label="gini = 0.0\nsamples = 2\nvalue = [0, 2]"] ;
623 -> 633 ;
634 [label="gini = 0.0\nsamples = 2\nvalue = [2, 0]"] ;
620 -> 634 ;
635 [label="image_ratio <= 0.1685\ngini = 0.3324\nsamples = 19\nvalue = [4, 15]"] ;
619 -> 635 ;
636 [label="gini = 0.0\nsamples = 8\nvalue = [0, 8]"] ;
635 -> 636 ;
637 [label="html_ratio <= 0.1923\ngini = 0.4628\nsamples = 11\nvalue = [4, 7]"] ;
635 -> 637 ;
638 [label="image_ratio <= 0.1796\ngini = 0.5\nsamples = 8\nvalue = [4, 4]"] ;
637 -> 638 ;
639 [label="image_ratio <= 0.1764\ngini = 0.4444\nsamples = 6\nvalue = [4, 2]"] ;
638 -> 639 ;
640 [label="image_ratio <= 0.1713\ngini = 0.4444\nsamples = 3\nvalue = [1, 2]"] ;
639 -> 640 ;
641 [label="gini = 0.0\nsamples = 1\nvalue = [1, 0]"] ;
640 -> 641 ;
642 [label="gini = 0.0\nsamples = 2\nvalue = [0, 2]"] ;
640 -> 642 ;
643 [label="gini = 0.0\nsamples = 3\nvalue = [3, 0]"] ;
639 -> 643 ;
644 [label="gini = 0.0\nsamples = 2\nvalue = [0, 2]"] ;
638 -> 644 ;
645 [label="gini = 0.0\nsamples = 3\nvalue = [0, 3]"] ;
637 -> 645 ;
646 [label="gini = 0.0\nsamples = 1\nvalue = [1, 0]"] ;
614 -> 646 ;
647 [label="image_ratio <= 0.1321\ngini = 0.1975\nsamples = 18\nvalue = [2, 16]"] ;
609 -> 647 ;
648 [label="gini = 0.0\nsamples = 1\nvalue = [1, 0]"] ;
647 -> 648 ;
649 [label="html_ratio <= 0.2008\ngini = 0.1107\nsamples = 17\nvalue = [1, 16]"] ;
647 -> 649 ;
650 [label="gini = 0.0\nsamples = 15\nvalue = [0, 15]"] ;
649 -> 650 ;
651 [label="html_ratio <= 0.201\ngini = 0.5\nsamples = 2\nvalue = [1, 1]"] ;
649 -> 651 ;
652 [label="gini = 0.0\nsamples = 1\nvalue = [1, 0]"] ;
651 -> 652 ;
653 [label="gini = 0.0\nsamples = 1\nvalue = [0, 1]"] ;
651 -> 653 ;
654 [label="image_ratio <= 0.1825\ngini = 0.4688\nsamples = 64\nvalue = [24, 40]"] ;
608 -> 654 ;
655 [label="gini = 0.0\nsamples = 3\nvalue = [3, 0]"] ;
654 -> 655 ;
656 [label="html_ratio <= 0.1943\ngini = 0.4515\nsamples = 61\nvalue = [21, 40]"] ;
654 -> 656 ;
657 [label="image_ratio <= 0.1932\ngini = 0.3926\nsamples = 41\nvalue = [11, 30]"] ;
656 -> 657 ;
658 [label="image_ratio <= 0.1874\ngini = 0.375\nsamples = 4\nvalue = [3, 1]"] ;
657 -> 658 ;
659 [label="gini = 0.0\nsamples = 1\nvalue = [0, 1]"] ;
658 -> 659 ;
660 [label="gini = 0.0\nsamples = 3\nvalue = [3, 0]"] ;
658 -> 660 ;
661 [label="html_ratio <= 0.1881\ngini = 0.3389\nsamples = 37\nvalue = [8, 29]"] ;
657 -> 661 ;
662 [label="image_ratio <= 0.2288\ngini = 0.48\nsamples = 15\nvalue = [6, 9]"] ;
661 -> 662 ;
663 [label="html_ratio <= 0.1863\ngini = 0.32\nsamples = 10\nvalue = [2, 8]"] ;
662 -> 663 ;
664 [label="gini = 0.0\nsamples = 5\nvalue = [0, 5]"] ;
663 -> 664 ;
665 [label="image_ratio <= 0.2123\ngini = 0.48\nsamples = 5\nvalue = [2, 3]"] ;
663 -> 665 ;
666 [label="html_ratio <= 0.1867\ngini = 0.375\nsamples = 4\nvalue = [1, 3]"] ;
665 -> 666 ;
667 [label="gini = 0.0\nsamples = 1\nvalue = [1, 0]"] ;
666 -> 667 ;
668 [label="gini = 0.0\nsamples = 3\nvalue = [0, 3]"] ;
666 -> 668 ;
669 [label="gini = 0.0\nsamples = 1\nvalue = [1, 0]"] ;
665 -> 669 ;
670 [label="html_ratio <= 0.187\ngini = 0.32\nsamples = 5\nvalue = [4, 1]"] ;
662 -> 670 ;
671 [label="gini = 0.0\nsamples = 3\nvalue = [3, 0]"] ;
670 -> 671 ;
672 [label="image_ratio <= 0.2356\ngini = 0.5\nsamples = 2\nvalue = [1, 1]"] ;
670 -> 672 ;
673 [label="gini = 0.0\nsamples = 1\nvalue = [1, 0]"] ;
672 -> 673 ;
674 [label="gini = 0.0\nsamples = 1\nvalue = [0, 1]"] ;
672 -> 674 ;
675 [label="image_ratio <= 0.2219\ngini = 0.1653\nsamples = 22\nvalue = [2, 20]"] ;
661 -> 675 ;
676 [label="html_ratio <= 0.1914\ngini = 0.4444\nsamples = 6\nvalue = [2, 4]"] ;
675 -> 676 ;
677 [label="gini = 0.0\nsamples = 3\nvalue = [0, 3]"] ;
676 -> 677 ;
678 [label="image_ratio <= 0.2032\ngini = 0.4444\nsamples = 3\nvalue = [2, 1]"] ;
676 -> 678 ;
679 [label="gini = 0.0\nsamples = 1\nvalue = [0, 1]"] ;
678 -> 679 ;
680 [label="gini = 0.0\nsamples = 2\nvalue = [2, 0]"] ;
678 -> 680 ;
681 [label="gini = 0.0\nsamples = 16\nvalue = [0, 16]"] ;
675 -> 681 ;
682 [label="image_ratio <= 0.1858\ngini = 0.5\nsamples = 20\nvalue = [10, 10]"] ;
656 -> 682 ;
683 [label="gini = 0.0\nsamples = 4\nvalue = [0, 4]"] ;
682 -> 683 ;
684 [label="html_ratio <= 0.1967\ngini = 0.4688\nsamples = 16\nvalue = [10, 6]"] ;
682 -> 684 ;
685 [label="gini = 0.0\nsamples = 5\nvalue = [5, 0]"] ;
684 -> 685 ;
686 [label="html_ratio <= 0.1984\ngini = 0.4959\nsamples = 11\nvalue = [5, 6]"] ;
684 -> 686 ;
687 [label="gini = 0.0\nsamples = 3\nvalue = [0, 3]"] ;
686 -> 687 ;
688 [label="html_ratio <= 0.1993\ngini = 0.4688\nsamples = 8\nvalue = [5, 3]"] ;
686 -> 688 ;
689 [label="gini = 0.0\nsamples = 3\nvalue = [3, 0]"] ;
688 -> 689 ;
690 [label="image_ratio <= 0.2035\ngini = 0.48\nsamples = 5\nvalue = [2, 3]"] ;
688 -> 690 ;
691 [label="gini = 0.0\nsamples = 1\nvalue = [1, 0]"] ;
690 -> 691 ;
692 [label="html_ratio <= 0.2003\ngini = 0.375\nsamples = 4\nvalue = [1, 3]"] ;
690 -> 692 ;
693 [label="image_ratio <= 0.2375\ngini = 0.5\nsamples = 2\nvalue = [1, 1]"] ;
692 -> 693 ;
694 [label="gini = 0.0\nsamples = 1\nvalue = [1, 0]"] ;
693 -> 694 ;
695 [label="gini = 0.0\nsamples = 1\nvalue = [0, 1]"] ;
693 -> 695 ;
696 [label="gini = 0.0\nsamples = 2\nvalue = [0, 2]"] ;
692 -> 696 ;
697 [label="gini = 0.0\nsamples = 1\nvalue = [1, 0]"] ;
607 -> 697 ;
698 [label="image_ratio <= 0.2531\ngini = 0.4996\nsamples = 72\nvalue = [37, 35]"] ;
444 -> 698 ;
699 [label="gini = 0.0\nsamples = 4\nvalue = [4, 0]"] ;
698 -> 699 ;
700 [label="html_ratio <= 0.1817\ngini = 0.4996\nsamples = 68\nvalue = [33, 35]"] ;
698 -> 700 ;
701 [label="gini = 0.0\nsamples = 3\nvalue = [0, 3]"] ;
700 -> 701 ;
702 [label="image_ratio <= 0.2943\ngini = 0.4999\nsamples = 65\nvalue = [33, 32]"] ;
700 -> 702 ;
703 [label="image_ratio <= 0.2678\ngini = 0.4664\nsamples = 27\nvalue = [17, 10]"] ;
702 -> 703 ;
704 [label="html_ratio <= 0.1912\ngini = 0.4628\nsamples = 11\nvalue = [4, 7]"] ;
703 -> 704 ;
705 [label="gini = 0.0\nsamples = 4\nvalue = [0, 4]"] ;
704 -> 705 ;
706 [label="html_ratio <= 0.1961\ngini = 0.4898\nsamples = 7\nvalue = [4, 3]"] ;
704 -> 706 ;
707 [label="gini = 0.0\nsamples = 3\nvalue = [3, 0]"] ;
706 -> 707 ;
708 [label="html_ratio <= 0.1992\ngini = 0.375\nsamples = 4\nvalue = [1, 3]"] ;
706 -> 708 ;
709 [label="gini = 0.0\nsamples = 3\nvalue = [0, 3]"] ;
708 -> 709 ;
710 [label="gini = 0.0\nsamples = 1\nvalue = [1, 0]"] ;
708 -> 710 ;
711 [label="html_ratio <= 0.1929\ngini = 0.3047\nsamples = 16\nvalue = [13, 3]"] ;
703 -> 711 ;
712 [label="html_ratio <= 0.1893\ngini = 0.4444\nsamples = 9\nvalue = [6, 3]"] ;
711 -> 712 ;
713 [label="gini = 0.0\nsamples = 5\nvalue = [5, 0]"] ;
712 -> 713 ;
714 [label="image_ratio <= 0.2899\ngini = 0.375\nsamples = 4\nvalue = [1, 3]"] ;
712 -> 714 ;
715 [label="gini = 0.0\nsamples = 3\nvalue = [0, 3]"] ;
714 -> 715 ;
716 [label="gini = 0.0\nsamples = 1\nvalue = [1, 0]"] ;
714 -> 716 ;
717 [label="gini = 0.0\nsamples = 7\nvalue = [7, 0]"] ;
711 -> 717 ;
718 [label="image_ratio <= 0.342\ngini = 0.4875\nsamples = 38\nvalue = [16, 22]"] ;
702 -> 718 ;
719 [label="html_ratio <= 0.1945\ngini = 0.4032\nsamples = 25\nvalue = [7, 18]"] ;
718 -> 719 ;
720 [label="image_ratio <= 0.3093\ngini = 0.4844\nsamples = 17\nvalue = [7, 10]"] ;
719 -> 720 ;
721 [label="gini = 0.0\nsamples = 3\nvalue = [0, 3]"] ;
720 -> 721 ;
722 [label="image_ratio <= 0.3341\ngini = 0.5\nsamples = 14\nvalue = [7, 7]"] ;
720 -> 722 ;
723 [label="html_ratio <= 0.19\ngini = 0.4861\nsamples = 12\nvalue = [7, 5]"] ;
722 -> 723 ;
724 [label="html_ratio <= 0.1828\ngini = 0.4938\nsamples = 9\nvalue = [4, 5]"] ;
723 -> 724 ;
725 [label="gini = 0.0\nsamples = 1\nvalue = [1, 0]"] ;
724 -> 725 ;
726 [label="image_ratio <= 0.3197\ngini = 0.4688\nsamples = 8\nvalue = [3, 5]"] ;
724 -> 726 ;
727 [label="gini = 0.0\nsamples = 3\nvalue = [0, 3]"] ;
726 -> 727 ;
728 [label="image_ratio <= 0.3252\ngini = 0.48\nsamples = 5\nvalue = [3, 2]"] ;
726 -> 728 ;
729 [label="gini = 0.0\nsamples = 2\nvalue = [2, 0]"] ;
728 -> 729 ;
730 [label="html_ratio <= 0.1851\ngini = 0.4444\nsamples = 3\nvalue = [1, 2]"] ;
728 -> 730 ;
731 [label="gini = 0.0\nsamples = 1\nvalue = [0, 1]"] ;
730 -> 731 ;
732 [label="html_ratio <= 0.1883\ngini = 0.5\nsamples = 2\nvalue = [1, 1]"] ;
730 -> 732 ;
733 [label="gini = 0.0\nsamples = 1\nvalue = [1, 0]"] ;
732 -> 733 ;
734 [label="gini = 0.0\nsamples = 1\nvalue = [0, 1]"] ;
732 -> 734 ;
735 [label="gini = 0.0\nsamples = 3\nvalue = [3, 0]"] ;
723 -> 735 ;
736 [label="gini = 0.0\nsamples = 2\nvalue = [0, 2]"] ;
722 -> 736 ;
737 [label="gini = 0.0\nsamples = 8\nvalue = [0, 8]"] ;
719 -> 737 ;
738 [label="image_ratio <= 0.3551\ngini = 0.426\nsamples = 13\nvalue = [9, 4]"] ;
718 -> 738 ;
739 [label="gini = 0.0\nsamples = 5\nvalue = [5, 0]"] ;
738 -> 739 ;
740 [label="html_ratio <= 0.1866\ngini = 0.5\nsamples = 8\nvalue = [4, 4]"] ;
738 -> 740 ;
741 [label="gini = 0.0\nsamples = 2\nvalue = [2, 0]"] ;
740 -> 741 ;
742 [label="html_ratio <= 0.1894\ngini = 0.4444\nsamples = 6\nvalue = [2, 4]"] ;
740 -> 742 ;
743 [label="gini = 0.0\nsamples = 2\nvalue = [0, 2]"] ;
742 -> 743 ;
744 [label="html_ratio <= 0.1916\ngini = 0.5\nsamples = 4\nvalue = [2, 2]"] ;
742 -> 744 ;
745 [label="gini = 0.0\nsamples = 2\nvalue = [2, 0]"] ;
744 -> 745 ;
746 [label="gini = 0.0\nsamples = 2\nvalue = [0, 2]"] ;
744 -> 746 ;
747 [label="gini = 0.0\nsamples = 6\nvalue = [0, 6]"] ;
443 -> 747 ;
748 [label="gini = 0.0\nsamples = 8\nvalue = [0, 8]"] ;
442 -> 748 ;
749 [label="image_ratio <= 0.1474\ngini = 0.4992\nsamples = 3979\nvalue = [2069, 1910]"] ;
101 -> 749 ;
750 [label="image_ratio <= 0.0058\ngini = 0.5\nsamples = 3183\nvalue = [1603, 1580]"] ;
749 -> 750 ;
751 [label="html_ratio <= 0.3041\ngini = 0.4916\nsamples = 531\nvalue = [300, 231]"] ;
750 -> 751 ;
752 [label="image_ratio <= 0.0037\ngini = 0.4898\nsamples = 525\nvalue = [300, 225]"] ;
751 -> 752 ;
753 [label="image_ratio <= 0.0004\ngini = 0.4939\nsamples = 479\nvalue = [266, 213]"] ;
752 -> 753 ;
754 [label="html_ratio <= 0.2369\ngini = 0.4907\nsamples = 454\nvalue = [258, 196]"] ;
753 -> 754 ;
755 [label="html_ratio <= 0.2277\ngini = 0.4708\nsamples = 153\nvalue = [95, 58]"] ;
754 -> 755 ;
756 [label="html_ratio <= 0.2191\ngini = 0.4949\nsamples = 109\nvalue = [60, 49]"] ;
755 -> 756 ;
757 [label="html_ratio <= 0.215\ngini = 0.4713\nsamples = 71\nvalue = [44, 27]"] ;
756 -> 757 ;
758 [label="html_ratio <= 0.2081\ngini = 0.4919\nsamples = 55\nvalue = [31, 24]"] ;
757 -> 758 ;
759 [label="html_ratio <= 0.2064\ngini = 0.4444\nsamples = 33\nvalue = [22, 11]"] ;
758 -> 759 ;
760 [label="html_ratio <= 0.2058\ngini = 0.4882\nsamples = 26\nvalue = [15, 11]"] ;
759 -> 760 ;
761 [label="html_ratio <= 0.2047\ngini = 0.4688\nsamples = 24\nvalue = [15, 9]"] ;
760 -> 761 ;
762 [label="html_ratio <= 0.2038\ngini = 0.4898\nsamples = 21\nvalue = [12, 9]"] ;
761 -> 762 ;
763 [label="html_ratio <= 0.2037\ngini = 0.4444\nsamples = 15\nvalue = [10, 5]"] ;
762 -> 763 ;
764 [label="html_ratio <= 0.2023\ngini = 0.4861\nsamples = 12\nvalue = [7, 5]"] ;
763 -> 764 ;
765 [label="html_ratio <= 0.2016\ngini = 0.32\nsamples = 5\nvalue = [4, 1]"] ;
764 -> 765 ;
766 [label="html_ratio <= 0.2015\ngini = 0.5\nsamples = 2\nvalue = [1, 1]"] ;
765 -> 766 ;
767 [label="gini = 0.0\nsamples = 1\nvalue = [1, 0]"] ;
766 -> 767 ;
768 [label="gini = 0.0\nsamples = 1\nvalue = [0, 1]"] ;
766 -> 768 ;
769 [label="gini = 0.0\nsamples = 3\nvalue = [3, 0]"] ;
765 -> 769 ;
770 [label="html_ratio <= 0.2025\ngini = 0.4898\nsamples = 7\nvalue = [3, 4]"] ;
764 -> 770 ;
771 [label="gini = 0.0\nsamples = 1\nvalue = [0, 1]"] ;
770 -> 771 ;
772 [label="html_ratio <= 0.2028\ngini = 0.5\nsamples = 6\nvalue = [3, 3]"] ;
770 -> 772 ;
773 [label="gini = 0.0\nsamples = 1\nvalue = [1, 0]"] ;
772 -> 773 ;
774 [label="html_ratio <= 0.203\ngini = 0.48\nsamples = 5\nvalue = [2, 3]"] ;
772 -> 774 ;
775 [label="gini = 0.0\nsamples = 1\nvalue = [0, 1]"] ;
774 -> 775 ;
776 [label="html_ratio <= 0.2031\ngini = 0.5\nsamples = 4\nvalue = [2, 2]"] ;
774 -> 776 ;
777 [label="gini = 0.0\nsamples = 1\nvalue = [1, 0]"] ;
776 -> 777 ;
778 [label="html_ratio <= 0.2032\ngini = 0.4444\nsamples = 3\nvalue = [1, 2]"] ;
776 -> 778 ;
779 [label="gini = 0.0\nsamples = 1\nvalue = [0, 1]"] ;
778 -> 779 ;
780 [label="html_ratio <= 0.2035\ngini = 0.5\nsamples = 2\nvalue = [1, 1]"] ;
778 -> 780 ;
781 [label="gini = 0.0\nsamples = 1\nvalue = [1, 0]"] ;
780 -> 781 ;
782 [label="gini = 0.0\nsamples = 1\nvalue = [0, 1]"] ;
780 -> 782 ;
783 [label="gini = 0.0\nsamples = 3\nvalue = [3, 0]"] ;
763 -> 783 ;
784 [label="html_ratio <= 0.2041\ngini = 0.4444\nsamples = 6\nvalue = [2, 4]"] ;
762 -> 784 ;
785 [label="gini = 0.0\nsamples = 3\nvalue = [0, 3]"] ;
784 -> 785 ;
786 [label="html_ratio <= 0.2046\ngini = 0.4444\nsamples = 3\nvalue = [2, 1]"] ;
784 -> 786 ;
787 [label="gini = 0.0\nsamples = 2\nvalue = [2, 0]"] ;
786 -> 787 ;
788 [label="gini = 0.0\nsamples = 1\nvalue = [0, 1]"] ;
786 -> 788 ;
789 [label="gini = 0.0\nsamples = 3\nvalue = [3, 0]"] ;
761 -> 789 ;
790 [label="gini = 0.0\nsamples = 2\nvalue = [0, 2]"] ;
760 -> 790 ;
791 [label="gini = 0.0\nsamples = 7\nvalue = [7, 0]"] ;
759 -> 791 ;
792 [label="html_ratio <= 0.2107\ngini = 0.4835\nsamples = 22\nvalue = [9, 13]"] ;
758 -> 792 ;
793 [label="gini = 0.0\nsamples = 6\nvalue = [0, 6]"] ;
792 -> 793 ;
794 [label="html_ratio <= 0.2149\ngini = 0.4922\nsamples = 16\nvalue = [9, 7]"] ;
792 -> 794 ;
795 [label="html_ratio <= 0.2124\ngini = 0.4592\nsamples = 14\nvalue = [9, 5]"] ;
794 -> 795 ;
796 [label="html_ratio <= 0.2109\ngini = 0.48\nsamples = 5\nvalue = [2, 3]"] ;
795 -> 796 ;
797 [label="gini = 0.0\nsamples = 1\nvalue = [1, 0]"] ;
796 -> 797 ;
798 [label="html_ratio <= 0.2118\ngini = 0.375\nsamples = 4\nvalue = [1, 3]"] ;
796 -> 798 ;
799 [label="gini = 0.0\nsamples = 2\nvalue = [0, 2]"] ;
798 -> 799 ;
800 [label="html_ratio <= 0.2123\ngini = 0.5\nsamples = 2\nvalue = [1, 1]"] ;
798 -> 800 ;
801 [label="gini = 0.0\nsamples = 1\nvalue = [1, 0]"] ;
800 -> 801 ;
802 [label="gini = 0.0\nsamples = 1\nvalue = [0, 1]"] ;
800 -> 802 ;
803 [label="html_ratio <= 0.2135\ngini = 0.3457\nsamples = 9\nvalue = [7, 2]"] ;
795 -> 803 ;
804 [label="gini = 0.0\nsamples = 3\nvalue = [3, 0]"] ;
803 -> 804 ;
805 [label="html_ratio <= 0.2135\ngini = 0.4444\nsamples = 6\nvalue = [4, 2]"] ;
803 -> 805 ;
806 [label="gini = 0.0\nsamples = 1\nvalue = [0, 1]"] ;
805 -> 806 ;
807 [label="html_ratio <= 0.2139\ngini = 0.32\nsamples = 5\nvalue = [4, 1]"] ;
805 -> 807 ;
808 [label="gini = 0.0\nsamples = 2\nvalue = [2, 0]"] ;
807 -> 808 ;
809 [label="html_ratio <= 0.2143\ngini = 0.4444\nsamples = 3\nvalue = [2, 1]"] ;
807 -> 809 ;
810 [label="gini = 0.0\nsamples = 1\nvalue = [0, 1]"] ;
809 -> 810 ;
811 [label="gini = 0.0\nsamples = 2\nvalue = [2, 0]"] ;
809 -> 811 ;
812 [label="gini = 0.0\nsamples = 2\nvalue = [0, 2]"] ;
794 -> 812 ;
813 [label="html_ratio <= 0.2183\ngini = 0.3047\nsamples = 16\nvalue = [13, 3]"] ;
757 -> 813 ;
814 [label="html_ratio <= 0.2166\ngini = 0.1653\nsamples = 11\nvalue = [10, 1]"] ;
813 -> 814 ;
815 [label="gini = 0.0\nsamples = 5\nvalue = [5, 0]"] ;
814 -> 815 ;
816 [label="html_ratio <= 0.217\ngini = 0.2778\nsamples = 6\nvalue = [5, 1]"] ;
814 -> 816 ;
817 [label="gini = 0.0\nsamples = 1\nvalue = [0, 1]"] ;
816 -> 817 ;
818 [label="gini = 0.0\nsamples = 5\nvalue = [5, 0]"] ;
816 -> 818 ;
819 [label="html_ratio <= 0.2189\ngini = 0.48\nsamples = 5\nvalue = [3, 2]"] ;
813 -> 819 ;
820 [label="html_ratio <= 0.2185\ngini = 0.4444\nsamples = 3\nvalue = [1, 2]"] ;
819 -> 820 ;
821 [label="gini = 0.0\nsamples = 1\nvalue = [0, 1]"] ;
820 -> 821 ;
822 [label="html_ratio <= 0.2187\ngini = 0.5\nsamples = 2\nvalue = [1, 1]"] ;
820 -> 822 ;
823 [label="gini = 0.0\nsamples = 1\nvalue = [1, 0]"] ;
822 -> 823 ;
824 [label="gini = 0.0\nsamples = 1\nvalue = [0, 1]"] ;
822 -> 824 ;
825 [label="gini = 0.0\nsamples = 2\nvalue = [2, 0]"] ;
819 -> 825 ;
826 [label="html_ratio <= 0.2221\ngini = 0.4875\nsamples = 38\nvalue = [16, 22]"] ;
756 -> 826 ;
827 [label="html_ratio <= 0.2207\ngini = 0.1975\nsamples = 9\nvalue = [1, 8]"] ;
826 -> 827 ;
828 [label="gini = 0.0\nsamples = 5\nvalue = [0, 5]"] ;
827 -> 828 ;
829 [label="html_ratio <= 0.2212\ngini = 0.375\nsamples = 4\nvalue = [1, 3]"] ;
827 -> 829 ;
830 [label="gini = 0.0\nsamples = 1\nvalue = [1, 0]"] ;
829 -> 830 ;
831 [label="gini = 0.0\nsamples = 3\nvalue = [0, 3]"] ;
829 -> 831 ;
832 [label="html_ratio <= 0.2277\ngini = 0.4994\nsamples = 29\nvalue = [15, 14]"] ;
826 -> 832 ;
833 [label="html_ratio <= 0.2229\ngini = 0.4938\nsamples = 27\nvalue = [15, 12]"] ;
832 -> 833 ;
834 [label="gini = 0.0\nsamples = 2\nvalue = [2, 0]"] ;
833 -> 834 ;
835 [label="html_ratio <= 0.2239\ngini = 0.4992\nsamples = 25\nvalue = [13, 12]"] ;
833 -> 835 ;
836 [label="gini = 0.0\nsamples = 3\nvalue = [0, 3]"] ;
835 -> 836 ;
837 [label="html_ratio <= 0.2241\ngini = 0.4835\nsamples = 22\nvalue = [13, 9]"] ;
835 -> 837 ;
838 [label="gini = 0.0\nsamples = 2\nvalue = [2, 0]"] ;
837 -> 838 ;
839 [label="html_ratio <= 0.2242\ngini = 0.495\nsamples = 20\nvalue = [11, 9]"] ;
837 -> 839 ;
840 [label="gini = 0.0\nsamples = 2\nvalue = [0, 2]"] ;
839 -> 840 ;
841 [label="html_ratio <= 0.226\ngini = 0.4753\nsamples = 18\nvalue = [11, 7]"] ;
839 -> 841 ;
842 [label="html_ratio <= 0.2253\ngini = 0.497\nsamples = 13\nvalue = [7, 6]"] ;
841 -> 842 ;
843 [label="html_ratio <= 0.2247\ngini = 0.4082\nsamples = 7\nvalue = [5, 2]"] ;
842 -> 843 ;
844 [label="html_ratio <= 0.2244\ngini = 0.5\nsamples = 4\nvalue = [2, 2]"] ;
843 -> 844 ;
845 [label="gini = 0.0\nsamples = 1\nvalue = [1, 0]"] ;
844 -> 845 ;
846 [label="html_ratio <= 0.2246\ngini = 0.4444\nsamples = 3\nvalue = [1, 2]"] ;
844 -> 846 ;
847 [label="gini = 0.0\nsamples = 1\nvalue = [0, 1]"] ;
846 -> 847 ;
848 [label="html_ratio <= 0.2246\ngini = 0.5\nsamples = 2\nvalue = [1, 1]"] ;
846 -> 848 ;
849 [label="gini = 0.0\nsamples = 1\nvalue = [1, 0]"] ;
848 -> 849 ;
850 [label="gini = 0.0\nsamples = 1\nvalue = [0, 1]"] ;
848 -> 850 ;
851 [label="gini = 0.0\nsamples = 3\nvalue = [3, 0]"] ;
843 -> 851 ;
852 [label="html_ratio <= 0.2256\ngini = 0.4444\nsamples = 6\nvalue = [2, 4]"] ;
842 -> 852 ;
853 [label="gini = 0.0\nsamples = 2\nvalue = [0, 2]"] ;
852 -> 853 ;
854 [label="html_ratio <= 0.2257\ngini = 0.5\nsamples = 4\nvalue = [2, 2]"] ;
852 -> 854 ;
855 [label="gini = 0.0\nsamples = 1\nvalue = [1, 0]"] ;
854 -> 855 ;
856 [label="html_ratio <= 0.2257\ngini = 0.4444\nsamples = 3\nvalue = [1, 2]"] ;
854 -> 856 ;
857 [label="gini = 0.0\nsamples = 1\nvalue = [0, 1]"] ;
856 -> 857 ;
858 [label="html_ratio <= 0.2258\ngini = 0.5\nsamples = 2\nvalue = [1, 1]"] ;
856 -> 858 ;
859 [label="gini = 0.0\nsamples = 1\nvalue = [1, 0]"] ;
858 -> 859 ;
860 [label="gini = 0.0\nsamples = 1\nvalue = [0, 1]"] ;
858 -> 860 ;
861 [label="html_ratio <= 0.2269\ngini = 0.32\nsamples = 5\nvalue = [4, 1]"] ;
841 -> 861 ;
862 [label="gini = 0.0\nsamples = 3\nvalue = [3, 0]"] ;
861 -> 862 ;
863 [label="html_ratio <= 0.2274\ngini = 0.5\nsamples = 2\nvalue = [1, 1]"] ;
861 -> 863 ;
864 [label="gini = 0.0\nsamples = 1\nvalue = [0, 1]"] ;
863 -> 864 ;
865 [label="gini = 0.0\nsamples = 1\nvalue = [1, 0]"] ;
863 -> 865 ;
866 [label="gini = 0.0\nsamples = 2\nvalue = [0, 2]"] ;
832 -> 866 ;
867 [label="html_ratio <= 0.2339\ngini = 0.3254\nsamples = 44\nvalue = [35, 9]"] ;
755 -> 867 ;
868 [label="html_ratio <= 0.2318\ngini = 0.2449\nsamples = 28\nvalue = [24, 4]"] ;
867 -> 868 ;
869 [label="html_ratio <= 0.2314\ngini = 0.32\nsamples = 20\nvalue = [16, 4]"] ;
868 -> 869 ;
870 [label="html_ratio <= 0.2296\ngini = 0.2659\nsamples = 19\nvalue = [16, 3]"] ;
869 -> 870 ;
871 [label="html_ratio <= 0.2289\ngini = 0.4082\nsamples = 7\nvalue = [5, 2]"] ;
870 -> 871 ;
872 [label="gini = 0.0\nsamples = 4\nvalue = [4, 0]"] ;
871 -> 872 ;
873 [label="html_ratio <= 0.2293\ngini = 0.4444\nsamples = 3\nvalue = [1, 2]"] ;
871 -> 873 ;
874 [label="gini = 0.0\nsamples = 1\nvalue = [0, 1]"] ;
873 -> 874 ;
875 [label="html_ratio <= 0.2296\ngini = 0.5\nsamples = 2\nvalue = [1, 1]"] ;
873 -> 875 ;
876 [label="gini = 0.0\nsamples = 1\nvalue = [1, 0]"] ;
875 -> 876 ;
877 [label="gini = 0.0\nsamples = 1\nvalue = [0, 1]"] ;
875 -> 877 ;
878 [label="html_ratio <= 0.2304\ngini = 0.1528\nsamples = 12\nvalue = [11, 1]"] ;
870 -> 878 ;
879 [label="gini = 0.0\nsamples = 9\nvalue = [9, 0]"] ;
878 -> 879 ;
880 [label="html_ratio <= 0.2307\ngini = 0.4444\nsamples = 3\nvalue = [2, 1]"] ;
878 -> 880 ;
881 [label="gini = 0.0\nsamples = 1\nvalue = [0, 1]"] ;
880 -> 881 ;
882 [label="gini = 0.0\nsamples = 2\nvalue = [2, 0]"] ;
880 -> 882 ;
883 [label="gini = 0.0\nsamples = 1\nvalue = [0, 1]"] ;
869 -> 883 ;
884 [label="gini = 0.0\nsamples = 8\nvalue = [8, 0]"] ;
868 -> 884 ;
885 [label="html_ratio <= 0.235\ngini = 0.4297\nsamples = 16\nvalue = [11, 5]"] ;
867 -> 885 ;
886 [label="html_ratio <= 0.2344\ngini = 0.48\nsamples = 5\nvalue = [2, 3]"] ;
885 -> 886 ;
887 [label="gini = 0.0\nsamples = 1\nvalue = [0, 1]"] ;
886 -> 887 ;
888 [label="html_ratio <= 0.2346\ngini = 0.5\nsamples = 4\nvalue = [2, 2]"] ;
886 -> 888 ;
889 [label="gini = 0.0\nsamples = 1\nvalue = [1, 0]"] ;
888 -> 889 ;
890 [label="html_ratio <= 0.2348\ngini = 0.4444\nsamples = 3\nvalue = [1, 2]"] ;
888 -> 890 ;
891 [label="gini = 0.0\nsamples = 1\nvalue = [0, 1]"] ;
890 -> 891 ;
892 [label="html_ratio <= 0.2349\ngini = 0.5\nsamples = 2\nvalue = [1, 1]"] ;
890 -> 892 ;
893 [label="gini = 0.0\nsamples = 1\nvalue = [1, 0]"] ;
892 -> 893 ;
894 [label="gini = 0.0\nsamples = 1\nvalue = [0, 1]"] ;
892 -> 894 ;
895 [label="html_ratio <= 0.2353\ngini = 0.2975\nsamples = 11\nvalue = [9, 2]"] ;
885 -> 895 ;
896 [label="gini = 0.0\nsamples = 3\nvalue = [3, 0]"] ;
895 -> 896 ;
897 [label="html_ratio <= 0.2355\ngini = 0.375\nsamples = 8\nvalue = [6, 2]"] ;
895 -> 897 ;
898 [label="gini = 0.0\nsamples = 1\nvalue = [0, 1]"] ;
897 -> 898 ;
899 [label="html_ratio <= 0.2359\ngini = 0.2449\nsamples = 7\nvalue = [6, 1]"] ;
897 -> 899 ;
900 [label="gini = 0.0\nsamples = 4\nvalue = [4, 0]"] ;
899 -> 900 ;
901 [label="html_ratio <= 0.2362\ngini = 0.4444\nsamples = 3\nvalue = [2, 1]"] ;
899 -> 901 ;
902 [label="gini = 0.0\nsamples = 1\nvalue = [0, 1]"] ;
901 -> 902 ;
903 [label="gini = 0.0\nsamples = 2\nvalue = [2, 0]"] ;
901 -> 903 ;
904 [label="html_ratio <= 0.2423\ngini = 0.4966\nsamples = 301\nvalue = [163, 138]"] ;
754 -> 904 ;
905 [label="html_ratio <= 0.2412\ngini = 0.4592\nsamples = 28\nvalue = [10, 18]"] ;
904 -> 905 ;
906 [label="html_ratio <= 0.241\ngini = 0.495\nsamples = 20\nvalue = [9, 11]"] ;
905 -> 906 ;
907 [label="html_ratio <= 0.2402\ngini = 0.4753\nsamples = 18\nvalue = [7, 11]"] ;
906 -> 907 ;
908 [label="html_ratio <= 0.2387\ngini = 0.4978\nsamples = 15\nvalue = [7, 8]"] ;
907 -> 908 ;
909 [label="html_ratio <= 0.2378\ngini = 0.4444\nsamples = 9\nvalue = [3, 6]"] ;
908 -> 909 ;
910 [label="html_ratio <= 0.2372\ngini = 0.5\nsamples = 6\nvalue = [3, 3]"] ;
909 -> 910 ;
911 [label="gini = 0.0\nsamples = 1\nvalue = [0, 1]"] ;
910 -> 911 ;
912 [label="html_ratio <= 0.2373\ngini = 0.48\nsamples = 5\nvalue = [3, 2]"] ;
910 -> 912 ;
913 [label="gini = 0.0\nsamples = 1\nvalue = [1, 0]"] ;
912 -> 913 ;
914 [label="html_ratio <= 0.2374\ngini = 0.5\nsamples = 4\nvalue = [2, 2]"] ;
912 -> 914 ;
915 [label="gini = 0.0\nsamples = 1\nvalue = [0, 1]"] ;
914 -> 915 ;
916 [label="html_ratio <= 0.2374\ngini = 0.4444\nsamples = 3\nvalue = [2, 1]"] ;
914 -> 916 ;
917 [label="gini = 0.0\nsamples = 1\nvalue = [1, 0]"] ;
916 -> 917 ;
918 [label="html_ratio <= 0.2375\ngini = 0.5\nsamples = 2\nvalue = [1, 1]"] ;
916 -> 918 ;
919 [label="gini = 0.0\nsamples = 1\nvalue = [0, 1]"] ;
918 -> 919 ;
920 [label="gini = 0.0\nsamples = 1\nvalue = [1, 0]"] ;
918 -> 920 ;
921 [label="gini = 0.0\nsamples = 3\nvalue = [0, 3]"] ;
909 -> 921 ;
922 [label="html_ratio <= 0.2397\ngini = 0.4444\nsamples = 6\nvalue = [4, 2]"] ;
908 -> 922 ;
923 [label="gini = 0.0\nsamples = 3\nvalue = [3, 0]"] ;
922 -> 923 ;
924 [label="html_ratio <= 0.24\ngini = 0.4444\nsamples = 3\nvalue = [1, 2]"] ;
922 -> 924 ;
925 [label="gini = 0.0\nsamples = 2\nvalue = [0, 2]"] ;
924 -> 925 ;
926 [label="gini = 0.0\nsamples = 1\nvalue = [1, 0]"] ;
924 -> 926 ;
927 [label="gini = 0.0\nsamples = 3\nvalue = [0, 3]"] ;
907 -> 927 ;
928 [label="gini = 0.0\nsamples = 2\nvalue = [2, 0]"] ;
906 -> 928 ;
929 [label="html_ratio <= 0.2418\ngini = 0.2188\nsamples = 8\nvalue = [1, 7]"] ;
905 -> 929 ;
930 [label="gini = 0.0\nsamples = 5\nvalue = [0, 5]"] ;
929 -> 930 ;
931 [label="html_ratio <= 0.2419\ngini = 0.4444\nsamples = 3\nvalue = [1, 2]"] ;
929 -> 931 ;
932 [label="gini = 0.0\nsamples = 1\nvalue = [1, 0]"] ;
931 -> 932 ;
933 [label="gini = 0.0\nsamples = 2\nvalue = [0, 2]"] ;
931 -> 933 ;
934 [label="html_ratio <= 0.256\ngini = 0.4927\nsamples = 273\nvalue = [153, 120]"] ;
904 -> 934 ;
935 [label="image_ratio <= -0.5\ngini = 0.4563\nsamples = 71\nvalue = [46, 25]"] ;
934 -> 935 ;
936 [label="html_ratio <= 0.2555\ngini = 0.4506\nsamples = 70\nvalue = [46, 24]"] ;
935 -> 936 ;
937 [label="html_ratio <= 0.2553\ngini = 0.4598\nsamples = 67\nvalue = [43, 24]"] ;
936 -> 937 ;
938 [label="html_ratio <= 0.2538\ngini = 0.4541\nsamples = 66\nvalue = [43, 23]"] ;
937 -> 938 ;
939 [label="html_ratio <= 0.2531\ngini = 0.4677\nsamples = 59\nvalue = [37, 22]"] ;
938 -> 939 ;
940 [label="html_ratio <= 0.2494\ngini = 0.4555\nsamples = 57\nvalue = [37, 20]"] ;
939 -> 940 ;
941 [label="html_ratio <= 0.2483\ngini = 0.4844\nsamples = 34\nvalue = [20, 14]"] ;
940 -> 941 ;
942 [label="html_ratio <= 0.2477\ngini = 0.4688\nsamples = 32\nvalue = [20, 12]"] ;
941 -> 942 ;
943 [label="html_ratio <= 0.2475\ngini = 0.48\nsamples = 30\nvalue = [18, 12]"] ;
942 -> 943 ;
944 [label="html_ratio <= 0.2462\ngini = 0.4709\nsamples = 29\nvalue = [18, 11]"] ;
943 -> 944 ;
945 [label="html_ratio <= 0.2457\ngini = 0.4915\nsamples = 23\nvalue = [13, 10]"] ;
944 -> 945 ;
946 [label="html_ratio <= 0.2452\ngini = 0.455\nsamples = 20\nvalue = [13, 7]"] ;
945 -> 946 ;
947 [label="html_ratio <= 0.245\ngini = 0.4922\nsamples = 16\nvalue = [9, 7]"] ;
946 -> 947 ;
948 [label="html_ratio <= 0.2446\ngini = 0.48\nsamples = 15\nvalue = [9, 6]"] ;
947 -> 948 ;
949 [label="html_ratio <= 0.2442\ngini = 0.497\nsamples = 13\nvalue = [7, 6]"] ;
948 -> 949 ;
950 [label="html_ratio <= 0.2433\ngini = 0.4444\nsamples = 9\nvalue = [6, 3]"] ;
949 -> 950 ;
951 [label="html_ratio <= 0.2426\ngini = 0.5\nsamples = 6\nvalue = [3, 3]"] ;
950 -> 951 ;
952 [label="gini = 0.0\nsamples = 1\nvalue = [1, 0]"] ;
951 -> 952 ;
953 [label="html_ratio <= 0.2426\ngini = 0.48\nsamples = 5\nvalue = [2, 3]"] ;
951 -> 953 ;
954 [label="gini = 0.0\nsamples = 1\nvalue = [0, 1]"] ;
953 -> 954 ;
955 [label="html_ratio <= 0.2428\ngini = 0.5\nsamples = 4\nvalue = [2, 2]"] ;
953 -> 955 ;
956 [label="gini = 0.0\nsamples = 1\nvalue = [1, 0]"] ;
955 -> 956 ;
957 [label="html_ratio <= 0.243\ngini = 0.4444\nsamples = 3\nvalue = [1, 2]"] ;
955 -> 957 ;
958 [label="gini = 0.0\nsamples = 1\nvalue = [0, 1]"] ;
957 -> 958 ;
959 [label="html_ratio <= 0.2431\ngini = 0.5\nsamples = 2\nvalue = [1, 1]"] ;
957 -> 959 ;
960 [label="gini = 0.0\nsamples = 1\nvalue = [1, 0]"] ;
959 -> 960 ;
961 [label="gini = 0.0\nsamples = 1\nvalue = [0, 1]"] ;
959 -> 961 ;
962 [label="gini = 0.0\nsamples = 3\nvalue = [3, 0]"] ;
950 -> 962 ;
963 [label="html_ratio <= 0.2444\ngini = 0.375\nsamples = 4\nvalue = [1, 3]"] ;
949 -> 963 ;
964 [label="gini = 0.0\nsamples = 2\nvalue = [0, 2]"] ;
963 -> 964 ;
965 [label="html_ratio <= 0.2445\ngini = 0.5\nsamples = 2\nvalue = [1, 1]"] ;
963 -> 965 ;
966 [label="gini = 0.0\nsamples = 1\nvalue = [1, 0]"] ;
965 -> 966 ;
967 [label="gini = 0.0\nsamples = 1\nvalue = [0, 1]"] ;
965 -> 967 ;
968 [label="gini = 0.0\nsamples = 2\nvalue = [2, 0]"] ;
948 -> 968 ;
969 [label="gini = 0.0\nsamples = 1\nvalue = [0, 1]"] ;
947 -> 969 ;
970 [label="gini = 0.0\nsamples = 4\nvalue = [4, 0]"] ;
946 -> 970 ;
971 [label="gini = 0.0\nsamples = 3\nvalue = [0, 3]"] ;
945 -> 971 ;
972 [label="html_ratio <= 0.2471\ngini = 0.2778\nsamples = 6\nvalue = [5, 1]"] ;
944 -> 972 ;
973 [label="gini = 0.0\nsamples = 3\nvalue = [3, 0]"] ;
972 -> 973 ;
974 [label="html_ratio <= 0.2472\ngini = 0.4444\nsamples = 3\nvalue = [2, 1]"] ;
972 -> 974 ;
975 [label="gini = 0.0\nsamples = 1\nvalue = [0, 1]"] ;
974 -> 975 ;
976 [label="gini = 0.0\nsamples = 2\nvalue = [2, 0]"] ;
974 -> 976 ;
977 [label="gini = 0.0\nsamples = 1\nvalue = [0, 1]"] ;
943 -> 977 ;
978 [label="gini = 0.0\nsamples = 2\nvalue = [2, 0]"] ;
942 -> 978 ;
979 [label="gini = 0.0\nsamples = 2\nvalue = [0, 2]"] ;
941 -> 979 ;
980 [label="html_ratio <= 0.2512\ngini = 0.3856\nsamples = 23\nvalue = [17, 6]"] ;
940 -> 980 ;
981 [label="html_ratio <= 0.2503\ngini = 0.1528\nsamples = 12\nvalue = [11, 1]"] ;
980 -> 981 ;
982 [label="gini = 0.0\nsamples = 6\nvalue = [6, 0]"] ;
981 -> 982 ;
983 [label="html_ratio <= 0.2505\ngini = 0.2778\nsamples = 6\nvalue = [5, 1]"] ;
981 -> 983 ;
984 [label="gini = 0.0\nsamples = 1\nvalue = [0, 1]"] ;
983 -> 984 ;
985 [label="gini = 0.0\nsamples = 5\nvalue = [5, 0]"] ;
983 -> 985 ;
986 [label="html_ratio <= 0.2517\ngini = 0.4959\nsamples = 11\nvalue = [6, 5]"] ;
980 -> 986 ;
987 [label="gini = 0.0\nsamples = 3\nvalue = [0, 3]"] ;
986 -> 987 ;
988 [label="html_ratio <= 0.2521\ngini = 0.375\nsamples = 8\nvalue = [6, 2]"] ;
986 -> 988 ;
989 [label="gini = 0.0\nsamples = 3\nvalue = [3, 0]"] ;
988 -> 989 ;
990 [label="html_ratio <= 0.253\ngini = 0.48\nsamples = 5\nvalue = [3, 2]"] ;
988 -> 990 ;
991 [label="html_ratio <= 0.2525\ngini = 0.4444\nsamples = 3\nvalue = [1, 2]"] ;
990 -> 991 ;
992 [label="gini = 0.0\nsamples = 1\nvalue = [0, 1]"] ;
991 -> 992 ;
993 [label="html_ratio <= 0.2529\ngini = 0.5\nsamples = 2\nvalue = [1, 1]"] ;
991 -> 993 ;
994 [label="gini = 0.0\nsamples = 1\nvalue = [1, 0]"] ;
993 -> 994 ;
995 [label="gini = 0.0\nsamples = 1\nvalue = [0, 1]"] ;
993 -> 995 ;
996 [label="gini = 0.0\nsamples = 2\nvalue = [2, 0]"] ;
990 -> 996 ;
997 [label="gini = 0.0\nsamples = 2\nvalue = [0, 2]"] ;
939 -> 997 ;
998 [label="html_ratio <= 0.2549\ngini = 0.2449\nsamples = 7\nvalue = [6, 1]"] ;
938 -> 998 ;
999 [label="gini = 0.0\nsamples = 4\nvalue = [4, 0]"] ;
998 -> 999 ;
1000 [label="html_ratio <= 0.255\ngini = 0.4444\nsamples = 3\nvalue = [2, 1]"] ;
998 -> 1000 ;
1001 [label="gini = 0.0\nsamples = 1\nvalue = [0, 1]"] ;
1000 -> 1001 ;
1002 [label="gini = 0.0\nsamples = 2\nvalue = [2, 0]"] ;
1000 -> 1002 ;
1003 [label="gini = 0.0\nsamples = 1\nvalue = [0, 1]"] ;
937 -> 1003 ;
1004 [label="gini = 0.0\nsamples = 3\nvalue = [3, 0]"] ;
936 -> 1004 ;
1005 [label="gini = 0.0\nsamples = 1\nvalue = [0, 1]"] ;
935 -> 1005 ;
1006 [label="html_ratio <= 0.2587\ngini = 0.4982\nsamples = 202\nvalue = [107, 95]"] ;
934 -> 1006 ;
1007 [label="html_ratio <= 0.2583\ngini = 0.32\nsamples = 15\nvalue = [3, 12]"] ;
1006 -> 1007 ;
1008 [label="html_ratio <= 0.2581\ngini = 0.42\nsamples = 10\nvalue = [3, 7]"] ;
1007 -> 1008 ;
1009 [label="html_ratio <= 0.2569\ngini = 0.2449\nsamples = 7\nvalue = [1, 6]"] ;
1008 -> 1009 ;
1010 [label="gini = 0.0\nsamples = 3\nvalue = [0, 3]"] ;
1009 -> 1010 ;
1011 [label="html_ratio <= 0.2573\ngini = 0.375\nsamples = 4\nvalue = [1, 3]"] ;
1009 -> 1011 ;
1012 [label="gini = 0.0\nsamples = 1\nvalue = [1, 0]"] ;
1011 -> 1012 ;
1013 [label="gini = 0.0\nsamples = 3\nvalue = [0, 3]"] ;
1011 -> 1013 ;
1014 [label="html_ratio <= 0.2582\ngini = 0.4444\nsamples = 3\nvalue = [2, 1]"] ;
1008 -> 1014 ;
1015 [label="gini = 0.0\nsamples = 1\nvalue = [1, 0]"] ;
1014 -> 1015 ;
1016 [label="html_ratio <= 0.2583\ngini = 0.5\nsamples = 2\nvalue = [1, 1]"] ;
1014 -> 1016 ;
1017 [label="gini = 0.0\nsamples = 1\nvalue = [0, 1]"] ;
1016 -> 1017 ;
1018 [label="gini = 0.0\nsamples = 1\nvalue = [1, 0]"] ;
1016 -> 1018 ;
1019 [label="gini = 0.0\nsamples = 5\nvalue = [0, 5]"] ;
1007 -> 1019 ;
1020 [label="html_ratio <= 0.2656\ngini = 0.4937\nsamples = 187\nvalue = [104, 83]"] ;
1006 -> 1020 ;
1021 [label="html_ratio <= 0.2594\ngini = 0.355\nsamples = 26\nvalue = [20, 6]"] ;
1020 -> 1021 ;
1022 [label="gini = 0.0\nsamples = 4\nvalue = [4, 0]"] ;
1021 -> 1022 ;
1023 [label="html_ratio <= 0.26\ngini = 0.3967\nsamples = 22\nvalue = [16, 6]"] ;
1021 -> 1023 ;
1024 [label="gini = 0.0\nsamples = 2\nvalue = [0, 2]"] ;
1023 -> 1024 ;
1025 [label="html_ratio <= 0.2609\ngini = 0.32\nsamples = 20\nvalue = [16, 4]"] ;
1023 -> 1025 ;
1026 [label="gini = 0.0\nsamples = 3\nvalue = [3, 0]"] ;
1025 -> 1026 ;
1027 [label="html_ratio <= 0.2613\ngini = 0.3599\nsamples = 17\nvalue = [13, 4]"] ;
1025 -> 1027 ;
1028 [label="gini = 0.0\nsamples = 1\nvalue = [0, 1]"] ;
1027 -> 1028 ;
1029 [label="html_ratio <= 0.2629\ngini = 0.3047\nsamples = 16\nvalue = [13, 3]"] ;
1027 -> 1029 ;
1030 [label="gini = 0.0\nsamples = 5\nvalue = [5, 0]"] ;
1029 -> 1030 ;
1031 [label="html_ratio <= 0.263\ngini = 0.3967\nsamples = 11\nvalue = [8, 3]"] ;
1029 -> 1031 ;
1032 [label="gini = 0.0\nsamples = 1\nvalue = [0, 1]"] ;
1031 -> 1032 ;
1033 [label="html_ratio <= 0.2652\ngini = 0.32\nsamples = 10\nvalue = [8, 2]"] ;
1031 -> 1033 ;
1034 [label="html_ratio <= 0.2647\ngini = 0.4082\nsamples = 7\nvalue = [5, 2]"] ;
1033 -> 1034 ;
1035 [label="html_ratio <= 0.2635\ngini = 0.2778\nsamples = 6\nvalue = [5, 1]"] ;
1034 -> 1035 ;
1036 [label="html_ratio <= 0.2632\ngini = 0.4444\nsamples = 3\nvalue = [2, 1]"] ;
1035 -> 1036 ;
1037 [label="gini = 0.0\nsamples = 2\nvalue = [2, 0]"] ;
1036 -> 1037 ;
1038 [label="gini = 0.0\nsamples = 1\nvalue = [0, 1]"] ;
1036 -> 1038 ;
1039 [label="gini = 0.0\nsamples = 3\nvalue = [3, 0]"] ;
1035 -> 1039 ;
1040 [label="gini = 0.0\nsamples = 1\nvalue = [0, 1]"] ;
1034 -> 1040 ;
1041 [label="gini = 0.0\nsamples = 3\nvalue = [3, 0]"] ;
1033 -> 1041 ;
1042 [label="html_ratio <= 0.2696\ngini = 0.4991\nsamples = 161\nvalue = [84, 77]"] ;
1020 -> 1042 ;
1043 [label="html_ratio <= 0.2685\ngini = 0.4644\nsamples = 30\nvalue = [11, 19]"] ;
1042 -> 1043 ;
1044 [label="html_ratio <= 0.2684\ngini = 0.4965\nsamples = 24\nvalue = [11, 13]"] ;
1043 -> 1044 ;
1045 [label="html_ratio <= 0.2678\ngini = 0.4835\nsamples = 22\nvalue = [9, 13]"] ;
1044 -> 1045 ;
1046 [label="html_ratio <= 0.2659\ngini = 0.5\nsamples = 18\nvalue = [9, 9]"] ;
1045 -> 1046 ;
1047 [label="gini = 0.0\nsamples = 2\nvalue = [0, 2]"] ;
1046 -> 1047 ;
1048 [label="html_ratio <= 0.2662\ngini = 0.4922\nsamples = 16\nvalue = [9, 7]"] ;
1046 -> 1048 ;
1049 [label="gini = 0.0\nsamples = 2\nvalue = [2, 0]"] ;
1048 -> 1049 ;
1050 [label="html_ratio <= 0.2671\ngini = 0.5\nsamples = 14\nvalue = [7, 7]"] ;
1048 -> 1050 ;
1051 [label="html_ratio <= 0.2669\ngini = 0.4861\nsamples = 12\nvalue = [5, 7]"] ;
1050 -> 1051 ;
1052 [label="html_ratio <= 0.2663\ngini = 0.5\nsamples = 10\nvalue = [5, 5]"] ;
1051 -> 1052 ;
1053 [label="gini = 0.0\nsamples = 1\nvalue = [0, 1]"] ;
1052 -> 1053 ;
1054 [label="html_ratio <= 0.2665\ngini = 0.4938\nsamples = 9\nvalue = [5, 4]"] ;
1052 -> 1054 ;
1055 [label="gini = 0.0\nsamples = 2\nvalue = [2, 0]"] ;
1054 -> 1055 ;
1056 [label="html_ratio <= 0.2668\ngini = 0.4898\nsamples = 7\nvalue = [3, 4]"] ;
1054 -> 1056 ;
1057 [label="html_ratio <= 0.2666\ngini = 0.4444\nsamples = 6\nvalue = [2, 4]"] ;
1056 -> 1057 ;
1058 [label="html_ratio <= 0.2665\ngini = 0.5\nsamples = 4\nvalue = [2, 2]"] ;
1057 -> 1058 ;
1059 [label="gini = 0.0\nsamples = 1\nvalue = [0, 1]"] ;
1058 -> 1059 ;
1060 [label="html_ratio <= 0.2666\ngini = 0.4444\nsamples = 3\nvalue = [2, 1]"] ;
1058 -> 1060 ;
1061 [label="gini = 0.0\nsamples = 1\nvalue = [1, 0]"] ;
1060 -> 1061 ;
1062 [label="html_ratio <= 0.2666\ngini = 0.5\nsamples = 2\nvalue = [1, 1]"] ;
1060 -> 1062 ;
1063 [label="gini = 0.0\nsamples = 1\nvalue = [0, 1]"] ;
1062 -> 1063 ;
1064 [label="gini = 0.0\nsamples = 1\nvalue = [1, 0]"] ;
1062 -> 1064 ;
1065 [label="gini = 0.0\nsamples = 2\nvalue = [0, 2]"] ;
1057 -> 1065 ;
1066 [label="gini = 0.0\nsamples = 1\nvalue = [1, 0]"] ;
1056 -> 1066 ;
1067 [label="gini = 0.0\nsamples = 2\nvalue = [0, 2]"] ;
1051 -> 1067 ;
1068 [label="gini = 0.0\nsamples = 2\nvalue = [2, 0]"] ;
1050 -> 1068 ;
1069 [label="gini = 0.0\nsamples = 4\nvalue = [0, 4]"] ;
1045 -> 1069 ;
1070 [label="gini = 0.0\nsamples = 2\nvalue = [2, 0]"] ;
1044 -> 1070 ;
1071 [label="gini = 0.0\nsamples = 6\nvalue = [0, 6]"] ;
1043 -> 1071 ;
1072 [label="html_ratio <= 0.2699\ngini = 0.4934\nsamples = 131\nvalue = [73, 58]"] ;
1042 -> 1072 ;
1073 [label="gini = 0.0\nsamples = 3\nvalue = [3, 0]"] ;
1072 -> 1073 ;
1074 [label="html_ratio <= 0.2703\ngini = 0.4956\nsamples = 128\nvalue = [70, 58]"] ;
1072 -> 1074 ;
1075 [label="html_ratio <= 0.27\ngini = 0.32\nsamples = 5\nvalue = [1, 4]"] ;
1074 -> 1075 ;
1076 [label="html_ratio <= 0.2699\ngini = 0.5\nsamples = 2\nvalue = [1, 1]"] ;
1075 -> 1076 ;
1077 [label="gini = 0.0\nsamples = 1\nvalue = [0, 1]"] ;
1076 -> 1077 ;
1078 [label="gini = 0.0\nsamples = 1\nvalue = [1, 0]"] ;
1076 -> 1078 ;
1079 [label="gini = 0.0\nsamples = 3\nvalue = [0, 3]"] ;
1075 -> 1079 ;
1080 [label="html_ratio <= 0.2707\ngini = 0.4926\nsamples = 123\nvalue = [69, 54]"] ;
1074 -> 1080 ;
1081 [label="gini = 0.0\nsamples = 3\nvalue = [3, 0]"] ;
1080 -> 1081 ;
1082 [label="html_ratio <= 0.3034\ngini = 0.495\nsamples = 120\nvalue = [66, 54]"] ;
1080 -> 1082 ;
1083 [label="html_ratio <= 0.2928\ngini = 0.4964\nsamples = 118\nvalue = [64, 54]"] ;
1082 -> 1083 ;
1084 [label="html_ratio <= 0.2894\ngini = 0.487\nsamples = 93\nvalue = [54, 39]"] ;
1083 -> 1084 ;
1085 [label="html_ratio <= 0.2883\ngini = 0.4935\nsamples = 88\nvalue = [49, 39]"] ;
1084 -> 1085 ;
1086 [label="html_ratio <= 0.2833\ngini = 0.4883\nsamples = 85\nvalue = [49, 36]"] ;
1085 -> 1086 ;
1087 [label="html_ratio <= 0.2708\ngini = 0.4977\nsamples = 73\nvalue = [39, 34]"] ;
1086 -> 1087 ;
1088 [label="gini = 0.0\nsamples = 1\nvalue = [0, 1]"] ;
1087 -> 1088 ;
1089 [label="html_ratio <= 0.2708\ngini = 0.4965\nsamples = 72\nvalue = [39, 33]"] ;
1087 -> 1089 ;
1090 [label="gini = 0.0\nsamples = 2\nvalue = [2, 0]"] ;
1089 -> 1090 ;
1091 [label="html_ratio <= 0.2709\ngini = 0.4984\nsamples = 70\nvalue = [37, 33]"] ;
1089 -> 1091 ;
1092 [label="gini = 0.0\nsamples = 1\nvalue = [0, 1]"] ;
1091 -> 1092 ;
1093 [label="html_ratio <= 0.2711\ngini = 0.4974\nsamples = 69\nvalue = [37, 32]"] ;
1091 -> 1093 ;
1094 [label="gini = 0.0\nsamples = 2\nvalue = [2, 0]"] ;
1093 -> 1094 ;
1095 [label="html_ratio <= 0.2721\ngini = 0.499\nsamples = 67\nvalue = [35, 32]"] ;
1093 -> 1095 ;
1096 [label="html_ratio <= 0.2718\ngini = 0.48\nsamples = 15\nvalue = [6, 9]"] ;
1095 -> 1096 ;
1097 [label="html_ratio <= 0.2717\ngini = 0.5\nsamples = 12\nvalue = [6, 6]"] ;
1096 -> 1097 ;
1098 [label="html_ratio <= 0.2715\ngini = 0.48\nsamples = 10\nvalue = [4, 6]"] ;
1097 -> 1098 ;
1099 [label="html_ratio <= 0.2712\ngini = 0.5\nsamples = 8\nvalue = [4, 4]"] ;
1098 -> 1099 ;
1100 [label="gini = 0.0\nsamples = 1\nvalue = [0, 1]"] ;
1099 -> 1100 ;
1101 [label="html_ratio <= 0.2713\ngini = 0.4898\nsamples = 7\nvalue = [4, 3]"] ;
1099 -> 1101 ;
1102 [label="gini = 0.0\nsamples = 2\nvalue = [2, 0]"] ;
1101 -> 1102 ;
1103 [label="html_ratio <= 0.2713\ngini = 0.48\nsamples = 5\nvalue = [2, 3]"] ;
1101 -> 1103 ;
1104 [label="gini = 0.0\nsamples = 2\nvalue = [0, 2]"] ;
1103 -> 1104 ;
1105 [label="html_ratio <= 0.2714\ngini = 0.4444\nsamples = 3\nvalue = [2, 1]"] ;
1103 -> 1105 ;
1106 [label="gini = 0.0\nsamples = 1\nvalue = [1, 0]"] ;
1105 -> 1106 ;
1107 [label="html_ratio <= 0.2715\ngini = 0.5\nsamples = 2\nvalue = [1, 1]"] ;
1105 -> 1107 ;
1108 [label="gini = 0.0\nsamples = 1\nvalue = [0, 1]"] ;
1107 -> 1108 ;
1109 [label="gini = 0.0\nsamples = 1\nvalue = [1, 0]"] ;
1107 -> 1109 ;
1110 [label="gini = 0.0\nsamples = 2\nvalue = [0, 2]"] ;
1098 -> 1110 ;
1111 [label="gini = 0.0\nsamples = 2\nvalue = [2, 0]"] ;
1097 -> 1111 ;
1112 [label="gini = 0.0\nsamples = 3\nvalue = [0, 3]"] ;
1096 -> 1112 ;
1113 [label="html_ratio <= 0.2833\ngini = 0.4933\nsamples = 52\nvalue = [29, 23]"] ;
1095 -> 1113 ;
1114 [label="html_ratio <= 0.2724\ngini = 0.4906\nsamples = 51\nvalue = [29, 22]"] ;
1113 -> 1114 ;
1115 [label="gini = 0.0\nsamples = 1\nvalue = [1, 0]"] ;
1114 -> 1115 ;
1116 [label="html_ratio <= 0.2726\ngini = 0.4928\nsamples = 50\nvalue = [28, 22]"] ;
1114 -> 1116 ;
1117 [label="gini = 0.0\nsamples = 1\nvalue = [0, 1]"] ;
1116 -> 1117 ;
1118 [label="html_ratio <= 0.2728\ngini = 0.4898\nsamples = 49\nvalue = [28, 21]"] ;
1116 -> 1118 ;
1119 [label="gini = 0.0\nsamples = 2\nvalue = [2, 0]"] ;
1118 -> 1119 ;
1120 [label="html_ratio <= 0.2732\ngini = 0.4943\nsamples = 47\nvalue = [26, 21]"] ;
1118 -> 1120 ;
1121 [label="html_ratio <= 0.2729\ngini = 0.375\nsamples = 4\nvalue = [1, 3]"] ;
1120 -> 1121 ;
1122 [label="html_ratio <= 0.2729\ngini = 0.5\nsamples = 2\nvalue = [1, 1]"] ;
1121 -> 1122 ;
1123 [label="gini = 0.0\nsamples = 1\nvalue = [0, 1]"] ;
1122 -> 1123 ;
1124 [label="gini = 0.0\nsamples = 1\nvalue = [1, 0]"] ;
1122 -> 1124 ;
1125 [label="gini = 0.0\nsamples = 2\nvalue = [0, 2]"] ;
1121 -> 1125 ;
1126 [label="html_ratio <= 0.2736\ngini = 0.4867\nsamples = 43\nvalue = [25, 18]"] ;
1120 -> 1126 ;
1127 [label="gini = 0.0\nsamples = 4\nvalue = [4, 0]"] ;
1126 -> 1127 ;
1128 [label="html_ratio <= 0.2747\ngini = 0.497\nsamples = 39\nvalue = [21, 18]"] ;
1126 -> 1128 ;
1129 [label="html_ratio <= 0.2738\ngini = 0.32\nsamples = 5\nvalue = [1, 4]"] ;
1128 -> 1129 ;
1130 [label="gini = 0.0\nsamples = 2\nvalue = [0, 2]"] ;
1129 -> 1130 ;
1131 [label="html_ratio <= 0.274\ngini = 0.4444\nsamples = 3\nvalue = [1, 2]"] ;
1129 -> 1131 ;
1132 [label="gini = 0.0\nsamples = 1\nvalue = [1, 0]"] ;
1131 -> 1132 ;
1133 [label="gini = 0.0\nsamples = 2\nvalue = [0, 2]"] ;
1131 -> 1133 ;
1134 [label="html_ratio <= 0.2751\ngini = 0.4844\nsamples = 34\nvalue = [20, 14]"] ;
1128 -> 1134 ;
1135 [label="gini = 0.0\nsamples = 2\nvalue = [2, 0]"] ;
1134 -> 1135 ;
1136 [label="html_ratio <= 0.2753\ngini = 0.4922\nsamples = 32\nvalue = [18, 14]"] ;
1134 -> 1136 ;
1137 [label="gini = 0.0\nsamples = 1\nvalue = [0, 1]"] ;
1136 -> 1137 ;
1138 [label="html_ratio <= 0.2755\ngini = 0.487\nsamples = 31\nvalue = [18, 13]"] ;
1136 -> 1138 ;
1139 [label="gini = 0.0\nsamples = 2\nvalue = [2, 0]"] ;
1138 -> 1139 ;
1140 [label="html_ratio <= 0.2756\ngini = 0.4946\nsamples = 29\nvalue = [16, 13]"] ;
1138 -> 1140 ;
1141 [label="gini = 0.0\nsamples = 2\nvalue = [0, 2]"] ;
1140 -> 1141 ;
1142 [label="html_ratio <= 0.2757\ngini = 0.4829\nsamples = 27\nvalue = [16, 11]"] ;
1140 -> 1142 ;
1143 [label="gini = 0.0\nsamples = 2\nvalue = [2, 0]"] ;
1142 -> 1143 ;
1144 [label="html_ratio <= 0.2761\ngini = 0.4928\nsamples = 25\nvalue = [14, 11]"] ;
1142 -> 1144 ;
1145 [label="gini = 0.0\nsamples = 1\nvalue = [0, 1]"] ;
1144 -> 1145 ;
1146 [label="html_ratio <= 0.2766\ngini = 0.4861\nsamples = 24\nvalue = [14, 10]"] ;
1144 -> 1146 ;
1147 [label="gini = 0.0\nsamples = 2\nvalue = [2, 0]"] ;
1146 -> 1147 ;
1148 [label="html_ratio <= 0.2768\ngini = 0.4959\nsamples = 22\nvalue = [12, 10]"] ;
1146 -> 1148 ;
1149 [label="gini = 0.0\nsamples = 1\nvalue = [0, 1]"] ;
1148 -> 1149 ;
1150 [label="html_ratio <= 0.2783\ngini = 0.4898\nsamples = 21\nvalue = [12, 9]"] ;
1148 -> 1150 ;
1151 [label="html_ratio <= 0.2772\ngini = 0.32\nsamples = 5\nvalue = [4, 1]"] ;
1150 -> 1151 ;
1152 [label="html_ratio <= 0.2771\ngini = 0.5\nsamples = 2\nvalue = [1, 1]"] ;
1151 -> 1152 ;
1153 [label="gini = 0.0\nsamples = 1\nvalue = [1, 0]"] ;
1152 -> 1153 ;
1154 [label="gini = 0.0\nsamples = 1\nvalue = [0, 1]"] ;
1152 -> 1154 ;
1155 [label="gini = 0.0\nsamples = 3\nvalue = [3, 0]"] ;
1151 -> 1155 ;
1156 [label="html_ratio <= 0.2825\ngini = 0.5\nsamples = 16\nvalue = [8, 8]"] ;
1150 -> 1156 ;
1157 [label="html_ratio <= 0.2815\ngini = 0.4861\nsamples = 12\nvalue = [5, 7]"] ;
1156 -> 1157 ;
1158 [label="html_ratio <= 0.2785\ngini = 0.5\nsamples = 10\nvalue = [5, 5]"] ;
1157 -> 1158 ;
1159 [label="gini = 0.0\nsamples = 1\nvalue = [0, 1]"] ;
1158 -> 1159 ;
1160 [label="html_ratio <= 0.2799\ngini = 0.4938\nsamples = 9\nvalue = [5, 4]"] ;
1158 -> 1160 ;
1161 [label="html_ratio <= 0.279\ngini = 0.375\nsamples = 4\nvalue = [3, 1]"] ;
1160 -> 1161 ;
1162 [label="html_ratio <= 0.2787\ngini = 0.5\nsamples = 2\nvalue = [1, 1]"] ;
1161 -> 1162 ;
1163 [label="gini = 0.0\nsamples = 1\nvalue = [1, 0]"] ;
1162 -> 1163 ;
1164 [label="gini = 0.0\nsamples = 1\nvalue = [0, 1]"] ;
1162 -> 1164 ;
1165 [label="gini = 0.0\nsamples = 2\nvalue = [2, 0]"] ;
1161 -> 1165 ;
1166 [label="html_ratio <= 0.2812\ngini = 0.48\nsamples = 5\nvalue = [2, 3]"] ;
1160 -> 1166 ;
1167 [label="html_ratio <= 0.2808\ngini = 0.375\nsamples = 4\nvalue = [1, 3]"] ;
1166 -> 1167 ;
1168 [label="html_ratio <= 0.2805\ngini = 0.5\nsamples = 2\nvalue = [1, 1]"] ;
1167 -> 1168 ;
1169 [label="gini = 0.0\nsamples = 1\nvalue = [0, 1]"] ;
1168 -> 1169 ;
1170 [label="gini = 0.0\nsamples = 1\nvalue = [1, 0]"] ;
1168 -> 1170 ;
1171 [label="gini = 0.0\nsamples = 2\nvalue = [0, 2]"] ;
1167 -> 1171 ;
1172 [label="gini = 0.0\nsamples = 1\nvalue = [1, 0]"] ;
1166 -> 1172 ;
1173 [label="gini = 0.0\nsamples = 2\nvalue = [0, 2]"] ;
1157 -> 1173 ;
1174 [label="html_ratio <= 0.2829\ngini = 0.375\nsamples = 4\nvalue = [3, 1]"] ;
1156 -> 1174 ;
1175 [label="gini = 0.0\nsamples = 2\nvalue = [2, 0]"] ;
1174 -> 1175 ;
1176 [label="html_ratio <= 0.2832\ngini = 0.5\nsamples = 2\nvalue = [1, 1]"] ;
1174 -> 1176 ;
1177 [label="gini = 0.0\nsamples = 1\nvalue = [0, 1]"] ;
1176 -> 1177 ;
1178 [label="gini = 0.0\nsamples = 1\nvalue = [1, 0]"] ;
1176 -> 1178 ;
1179 [label="gini = 0.0\nsamples = 1\nvalue = [0, 1]"] ;
1113 -> 1179 ;
1180 [label="image_ratio <= -0.5\ngini = 0.2778\nsamples = 12\nvalue = [10, 2]"] ;
1086 -> 1180 ;
1181 [label="html_ratio <= 0.2876\ngini = 0.1653\nsamples = 11\nvalue = [10, 1]"] ;
1180 -> 1181 ;
1182 [label="gini = 0.0\nsamples = 8\nvalue = [8, 0]"] ;
1181 -> 1182 ;
1183 [label="html_ratio <= 0.2879\ngini = 0.4444\nsamples = 3\nvalue = [2, 1]"] ;
1181 -> 1183 ;
1184 [label="gini = 0.0\nsamples = 1\nvalue = [0, 1]"] ;
1183 -> 1184 ;
1185 [label="gini = 0.0\nsamples = 2\nvalue = [2, 0]"] ;
1183 -> 1185 ;
1186 [label="gini = 0.0\nsamples = 1\nvalue = [0, 1]"] ;
1180 -> 1186 ;
1187 [label="gini = 0.0\nsamples = 3\nvalue = [0, 3]"] ;
1085 -> 1187 ;
1188 [label="gini = 0.0\nsamples = 5\nvalue = [5, 0]"] ;
1084 -> 1188 ;
1189 [label="html_ratio <= 0.296\ngini = 0.48\nsamples = 25\nvalue = [10, 15]"] ;
1083 -> 1189 ;
1190 [label="image_ratio <= -0.5\ngini = 0.32\nsamples = 10\nvalue = [2, 8]"] ;
1189 -> 1190 ;
1191 [label="html_ratio <= 0.2952\ngini = 0.1975\nsamples = 9\nvalue = [1, 8]"] ;
1190 -> 1191 ;
1192 [label="html_ratio <= 0.2948\ngini = 0.375\nsamples = 4\nvalue = [1, 3]"] ;
1191 -> 1192 ;
1193 [label="gini = 0.0\nsamples = 3\nvalue = [0, 3]"] ;
1192 -> 1193 ;
1194 [label="gini = 0.0\nsamples = 1\nvalue = [1, 0]"] ;
1192 -> 1194 ;
1195 [label="gini = 0.0\nsamples = 5\nvalue = [0, 5]"] ;
1191 -> 1195 ;
1196 [label="gini = 0.0\nsamples = 1\nvalue = [1, 0]"] ;
1190 -> 1196 ;
1197 [label="html_ratio <= 0.2968\ngini = 0.4978\nsamples = 15\nvalue = [8, 7]"] ;
1189 -> 1197 ;
1198 [label="gini = 0.0\nsamples = 2\nvalue = [2, 0]"] ;
1197 -> 1198 ;
1199 [label="html_ratio <= 0.2997\ngini = 0.497\nsamples = 13\nvalue = [6, 7]"] ;
1197 -> 1199 ;
1200 [label="gini = 0.0\nsamples = 3\nvalue = [0, 3]"] ;
1199 -> 1200 ;
1201 [label="html_ratio <= 0.302\ngini = 0.48\nsamples = 10\nvalue = [6, 4]"] ;
1199 -> 1201 ;
1202 [label="html_ratio <= 0.3012\ngini = 0.2778\nsamples = 6\nvalue = [5, 1]"] ;
1201 -> 1202 ;
1203 [label="gini = 0.0\nsamples = 3\nvalue = [3, 0]"] ;
1202 -> 1203 ;
1204 [label="html_ratio <= 0.3018\ngini = 0.4444\nsamples = 3\nvalue = [2, 1]"] ;
1202 -> 1204 ;
1205 [label="gini = 0.0\nsamples = 1\nvalue = [0, 1]"] ;
1204 -> 1205 ;
1206 [label="gini = 0.0\nsamples = 2\nvalue = [2, 0]"] ;
1204 -> 1206 ;
1207 [label="html_ratio <= 0.3026\ngini = 0.375\nsamples = 4\nvalue = [1, 3]"] ;
1201 -> 1207 ;
1208 [label="gini = 0.0\nsamples = 2\nvalue = [0, 2]"] ;
1207 -> 1208 ;
1209 [label="html_ratio <= 0.3029\ngini = 0.5\nsamples = 2\nvalue = [1, 1]"] ;
1207 -> 1209 ;
1210 [label="gini = 0.0\nsamples = 1\nvalue = [1, 0]"] ;
1209 -> 1210 ;
1211 [label="gini = 0.0\nsamples = 1\nvalue = [0, 1]"] ;
1209 -> 1211 ;
1212 [label="gini = 0.0\nsamples = 2\nvalue = [2, 0]"] ;
1082 -> 1212 ;
1213 [label="html_ratio <= 0.2187\ngini = 0.4352\nsamples = 25\nvalue = [8, 17]"] ;
753 -> 1213 ;
1214 [label="gini = 0.0\nsamples = 2\nvalue = [2, 0]"] ;
1213 -> 1214 ;
